// Neural Network File Format by Kyle Julian, Stanford 2016
4,784,10,784,
784,100,100,100,10,
0,
0.0,0.0,0.0,0.0,0.0,0.0,0.0,0.0,0.0,0.0,0.0,0.0,0.0,0.0,0.0,0.0,0.0,0.0,0.0,0.0,0.0,0.0,0.0,0.0,0.0,0.0,0.0,0.0,0.0,0.0,0.0,0.0,0.0,0.0,0.0,0.0,0.0,0.0,0.0,0.0,0.0,0.0,0.0,0.0,0.0,0.0,0.0,0.0,0.0,0.0,0.0,0.0,0.0,0.0,0.0,0.0,0.0,0.0,0.0,0.0,0.0,0.0,0.0,0.0,0.0,0.0,0.0,0.0,0.0,0.0,0.0,0.0,0.0,0.0,0.0,0.0,0.0,0.0,0.0,0.0,0.0,0.0,0.0,0.0,0.0,0.0,0.0,0.0,0.0,0.0,0.0,0.0,0.0,0.0,0.0,0.0,0.0,0.0,0.0,0.0,0.0,0.0,0.0,0.0,0.0,0.0,0.0,0.0,0.0,0.0,0.0,0.0,0.0,0.0,0.0,0.0,0.0,0.0,0.0,0.0,0.0,0.0,0.0,0.0,0.0,0.0,0.0,0.0,0.0,0.0,0.0,0.0,0.0,0.0,0.0,0.0,0.0,0.0,0.0,0.0,0.0,0.0,0.0,0.0,0.0,0.0,0.0,0.0,0.0,0.0,0.0,0.0,0.0,0.0,0.0,0.0,0.0,0.0,0.0,0.0,0.0,0.0,0.0,0.0,0.0,0.0,0.0,0.0,0.0,0.0,0.0,0.0,0.0,0.0,0.0,0.0,0.0,0.0,0.0,0.0,0.0,0.0,0.0,0.0,0.0,0.0,0.0,0.0,0.0,0.0,0.0,0.0,0.0,0.0,0.0,0.0,0.0,0.0,0.0,0.0,0.0,0.0,0.0,0.0,0.0,0.0,0.0,0.0,0.0,0.0,0.0,0.0,0.0,0.0,0.0,0.0,0.0,0.0,0.0,0.0,0.0,0.0,0.0,0.0,0.0,0.0,0.0,0.0,0.0,0.0,0.0,0.0,0.0,0.0,0.0,0.0,0.0,0.0,0.0,0.0,0.0,0.0,0.0,0.0,0.0,0.0,0.0,0.0,0.0,0.0,0.0,0.0,0.0,0.0,0.0,0.0,0.0,0.0,0.0,0.0,0.0,0.0,0.0,0.0,0.0,0.0,0.0,0.0,0.0,0.0,0.0,0.0,0.0,0.0,0.0,0.0,0.0,0.0,0.0,0.0,0.0,0.0,0.0,0.0,0.0,0.0,0.0,0.0,0.0,0.0,0.0,0.0,0.0,0.0,0.0,0.0,0.0,0.0,0.0,0.0,0.0,0.0,0.0,0.0,0.0,0.0,0.0,0.0,0.0,0.0,0.0,0.0,0.0,0.0,0.0,0.0,0.0,0.0,0.0,0.0,0.0,0.0,0.0,0.0,0.0,0.0,0.0,0.0,0.0,0.0,0.0,0.0,0.0,0.0,0.0,0.0,0.0,0.0,0.0,0.0,0.0,0.0,0.0,0.0,0.0,0.0,0.0,0.0,0.0,0.0,0.0,0.0,0.0,0.0,0.0,0.0,0.0,0.0,0.0,0.0,0.0,0.0,0.0,0.0,0.0,0.0,0.0,0.0,0.0,0.0,0.0,0.0,0.0,0.0,0.0,0.0,0.0,0.0,0.0,0.0,0.0,0.0,0.0,0.0,0.0,0.0,0.0,0.0,0.0,0.0,0.0,0.0,0.0,0.0,0.0,0.0,0.0,0.0,0.0,0.0,0.0,0.0,0.0,0.0,0.0,0.0,0.0,0.0,0.0,0.0,0.0,0.0,0.0,0.0,0.0,0.0,0.0,0.0,0.0,0.0,0.0,0.0,0.0,0.0,0.0,0.0,0.0,0.0,0.0,0.0,0.0,0.0,0.0,0.0,0.0,0.0,0.0,0.0,0.0,0.0,0.0,0.0,0.0,0.0,0.0,0.0,0.0,0.0,0.0,0.0,0.0,0.0,0.0,0.0,0.0,0.0,0.0,0.0,0.0,0.0,0.0,0.0,0.0,0.0,0.0,0.0,0.0,0.0,0.0,0.0,0.0,0.0,0.0,0.0,0.0,0.0,0.0,0.0,0.0,0.0,0.0,0.0,0.0,0.0,0.0,0.0,0.0,0.0,0.0,0.0,0.0,0.0,0.0,0.0,0.0,0.0,0.0,0.0,0.0,0.0,0.0,0.0,0.0,0.0,0.0,0.0,0.0,0.0,0.0,0.0,0.0,0.0,0.0,0.0,0.0,0.0,0.0,0.0,0.0,0.0,0.0,0.0,0.0,0.0,0.0,0.0,0.0,0.0,0.0,0.0,0.0,0.0,0.0,0.0,0.0,0.0,0.0,0.0,0.0,0.0,0.0,0.0,0.0,0.0,0.0,0.0,0.0,0.0,0.0,0.0,0.0,0.0,0.0,0.0,0.0,0.0,0.0,0.0,0.0,0.0,0.0,0.0,0.0,0.0,0.0,0.0,0.0,0.0,0.0,0.0,0.0,0.0,0.0,0.0,0.0,0.0,0.0,0.0,0.0,0.0,0.0,0.0,0.0,0.0,0.0,0.0,0.0,0.0,0.0,0.0,0.0,0.0,0.0,0.0,0.0,0.0,0.0,0.0,0.0,0.0,0.0,0.0,0.0,0.0,0.0,0.0,0.0,0.0,0.0,0.0,0.0,0.0,0.0,0.0,0.0,0.0,0.0,0.0,0.0,0.0,0.0,0.0,0.0,0.0,0.0,0.0,0.0,0.0,0.0,0.0,0.0,0.0,0.0,0.0,0.0,0.0,0.0,0.0,0.0,0.0,0.0,0.0,0.0,0.0,0.0,0.0,0.0,0.0,0.0,0.0,0.0,0.0,0.0,0.0,0.0,0.0,0.0,0.0,0.0,0.0,0.0,0.0,0.0,0.0,0.0,0.0,0.0,0.0,0.0,0.0,0.0,0.0,0.0,0.0,0.0,0.0,0.0,0.0,0.0,0.0,0.0,0.0,0.0,0.0,0.0,0.0,0.0,0.0,0.0,0.0,0.0,0.0,0.0,0.0,0.0,0.0,0.0,0.0,0.0,0.0,0.0,0.0,0.0,0.0,0.0,0.0,0.0,0.0,0.0,0.0,0.0,0.0,0.0,0.0,0.0,0.0,0.0,0.0,0.0,0.0,0.0,0.0,0.0,0.0,0.0,0.0,0.0,0.0,0.0,0.0,0.0,0.0,0.0,0.0,0.0,0.0,0.0,0.0,0.0,0.0,0.0,0.0,0.0,0.0,0.0,0.0,0.0,0.0,0.0,0.0,0.0,0.0,0.0,0.0,0.0,0.0,0.0,0.0,0.0,0.0,0.0,0.0,0.0,0.0,0.0,0.0,0.0,0.0,0.0,0.0,0.0,0.0,0.0,0.0,0.0,0.0,0.0,0.0,0.0,0.0,0.0,0.0,0.0,0.0,
0.0,0.0,0.0,0.0,0.0,0.0,0.0,0.0,0.0,0.0,0.0,0.0,0.0,0.0,0.0,0.0,0.0,0.0,0.0,0.0,0.0,0.0,0.0,0.0,0.0,0.0,0.0,0.0,0.0,0.0,0.0,0.0,0.0,0.0,0.0,0.0,0.0,0.0,0.0,0.0,0.0,0.0,0.0,0.0,0.0,0.0,0.0,0.0,0.0,0.0,0.0,0.0,0.0,0.0,0.0,0.0,0.0,0.0,0.0,0.0,0.0,0.0,0.0,0.0,0.0,0.0,0.0,0.0,0.0,0.0,0.0,0.0,0.0,0.0,0.0,0.0,0.0,0.0,0.0,0.0,0.0,0.0,0.0,0.0,0.0,0.0,0.0,0.0,0.0,0.0,0.0,0.0,0.0,0.0,0.0,0.0,0.0,0.0,0.0,0.0,0.0,0.0,0.0,0.0,0.0,0.0,0.0,0.0,0.0,0.0,0.0,0.0,0.0,0.0,0.0,0.0,0.0,0.0,0.0,0.0,0.0,0.0,0.0,0.0,0.0,0.0,0.0,0.0,0.0,0.0,0.0,0.0,0.0,0.0,0.0,0.0,0.0,0.0,0.0,0.0,0.0,0.0,0.0,0.0,0.0,0.0,0.0,0.0,0.0,0.0,0.0,0.0,0.0,0.0,0.0,0.0,0.0,0.0,0.0,0.0,0.0,0.0,0.0,0.0,0.0,0.0,0.0,0.0,0.0,0.0,0.0,0.0,0.0,0.0,0.0,0.0,0.0,0.0,0.0,0.0,0.0,0.0,0.0,0.0,0.0,0.0,0.0,0.0,0.0,0.0,0.0,0.0,0.0,0.0,0.0,0.0,0.0,0.0,0.0,0.0,0.0,0.0,0.0,0.0,0.0,0.0,0.0,0.0,0.0,0.0,0.0,0.0,0.0,0.0,0.0,0.0,0.0,0.0,0.0,0.0,0.0,0.0,0.0,0.0,0.0,0.0,0.0,0.0,0.0,0.0,0.0,0.0,0.0,0.0,0.0,0.0,0.0,0.0,0.0,0.0,0.0,0.0,0.0,0.0,0.0,0.0,0.0,0.0,0.0,0.0,0.0,0.0,0.0,0.0,0.0,0.0,0.0,0.0,0.0,0.0,0.0,0.0,0.0,0.0,0.0,0.0,0.0,0.0,0.0,0.0,0.0,0.0,0.0,0.0,0.0,0.0,0.0,0.0,0.0,0.0,0.0,0.0,0.0,0.0,0.0,0.0,0.0,0.0,0.0,0.0,0.0,0.0,0.0,0.0,0.0,0.0,0.0,0.0,0.0,0.0,0.0,0.0,0.0,0.0,0.0,0.0,0.0,0.0,0.0,0.0,0.0,0.0,0.0,0.0,0.0,0.0,0.0,0.0,0.0,0.0,0.0,0.0,0.0,0.0,0.0,0.0,0.0,0.0,0.0,0.0,0.0,0.0,0.0,0.0,0.0,0.0,0.0,0.0,0.0,0.0,0.0,0.0,0.0,0.0,0.0,0.0,0.0,0.0,0.0,0.0,0.0,0.0,0.0,0.0,0.0,0.0,0.0,0.0,0.0,0.0,0.0,0.0,0.0,0.0,0.0,0.0,0.0,0.0,0.0,0.0,0.0,0.0,0.0,0.0,0.0,0.0,0.0,0.0,0.0,0.0,0.0,0.0,0.0,0.0,0.0,0.0,0.0,0.0,0.0,0.0,0.0,0.0,0.0,0.0,0.0,0.0,0.0,0.0,0.0,0.0,0.0,0.0,0.0,0.0,0.0,0.0,0.0,0.0,0.0,0.0,0.0,0.0,0.0,0.0,0.0,0.0,0.0,0.0,0.0,0.0,0.0,0.0,0.0,0.0,0.0,0.0,0.0,0.0,0.0,0.0,0.0,0.0,0.0,0.0,0.0,0.0,0.0,0.0,0.0,0.0,0.0,0.0,0.0,0.0,0.0,0.0,0.0,0.0,0.0,0.0,0.0,0.0,0.0,0.0,0.0,0.0,0.0,0.0,0.0,0.0,0.0,0.0,0.0,0.0,0.0,0.0,0.0,0.0,0.0,0.0,0.0,0.0,0.0,0.0,0.0,0.0,0.0,0.0,0.0,0.0,0.0,0.0,0.0,0.0,0.0,0.0,0.0,0.0,0.0,0.0,0.0,0.0,0.0,0.0,0.0,0.0,0.0,0.0,0.0,0.0,0.0,0.0,0.0,0.0,0.0,0.0,0.0,0.0,0.0,0.0,0.0,0.0,0.0,0.0,0.0,0.0,0.0,0.0,0.0,0.0,0.0,0.0,0.0,0.0,0.0,0.0,0.0,0.0,0.0,0.0,0.0,0.0,0.0,0.0,0.0,0.0,0.0,0.0,0.0,0.0,0.0,0.0,0.0,0.0,0.0,0.0,0.0,0.0,0.0,0.0,0.0,0.0,0.0,0.0,0.0,0.0,0.0,0.0,0.0,0.0,0.0,0.0,0.0,0.0,0.0,0.0,0.0,0.0,0.0,0.0,0.0,0.0,0.0,0.0,0.0,0.0,0.0,0.0,0.0,0.0,0.0,0.0,0.0,0.0,0.0,0.0,0.0,0.0,0.0,0.0,0.0,0.0,0.0,0.0,0.0,0.0,0.0,0.0,0.0,0.0,0.0,0.0,0.0,0.0,0.0,0.0,0.0,0.0,0.0,0.0,0.0,0.0,0.0,0.0,0.0,0.0,0.0,0.0,0.0,0.0,0.0,0.0,0.0,0.0,0.0,0.0,0.0,0.0,0.0,0.0,0.0,0.0,0.0,0.0,0.0,0.0,0.0,0.0,0.0,0.0,0.0,0.0,0.0,0.0,0.0,0.0,0.0,0.0,0.0,0.0,0.0,0.0,0.0,0.0,0.0,0.0,0.0,0.0,0.0,0.0,0.0,0.0,0.0,0.0,0.0,0.0,0.0,0.0,0.0,0.0,0.0,0.0,0.0,0.0,0.0,0.0,0.0,0.0,0.0,0.0,0.0,0.0,0.0,0.0,0.0,0.0,0.0,0.0,0.0,0.0,0.0,0.0,0.0,0.0,0.0,0.0,0.0,0.0,0.0,0.0,0.0,0.0,0.0,0.0,0.0,0.0,0.0,0.0,0.0,0.0,0.0,0.0,0.0,0.0,0.0,0.0,0.0,0.0,0.0,0.0,0.0,0.0,0.0,0.0,0.0,0.0,0.0,0.0,0.0,0.0,0.0,0.0,0.0,0.0,0.0,0.0,0.0,0.0,0.0,0.0,0.0,0.0,0.0,0.0,0.0,0.0,0.0,0.0,0.0,0.0,0.0,0.0,0.0,0.0,0.0,0.0,0.0,0.0,0.0,0.0,0.0,0.0,0.0,0.0,0.0,0.0,0.0,0.0,0.0,0.0,0.0,0.0,0.0,0.0,0.0,0.0,0.0,0.0,0.0,0.0,0.0,0.0,0.0,0.0,
0.0,0.0,0.0,0.0,0.0,0.0,0.0,0.0,0.0,0.0,0.0,0.0,0.0,0.0,0.0,0.0,0.0,0.0,0.0,0.0,0.0,0.0,0.0,0.0,0.0,0.0,0.0,0.0,0.0,0.0,0.0,0.0,0.0,0.0,0.0,0.0,0.0,0.0,0.0,0.0,0.0,0.0,0.0,0.0,0.0,0.0,0.0,0.0,0.0,0.0,0.0,0.0,0.0,0.0,0.0,0.0,0.0,0.0,0.0,0.0,0.0,0.0,0.0,0.0,0.0,0.0,0.0,0.0,0.0,0.0,0.0,0.0,0.0,0.0,0.0,0.0,0.0,0.0,0.0,0.0,0.0,0.0,0.0,0.0,0.0,0.0,0.0,0.0,0.0,0.0,0.0,0.0,0.0,0.0,0.0,0.0,0.0,0.0,0.0,0.0,0.0,0.0,0.0,0.0,0.0,0.0,0.0,0.0,0.0,0.0,0.0,0.0,0.0,0.0,0.0,0.0,0.0,0.0,0.0,0.0,0.0,0.0,0.0,0.0,0.0,0.0,0.0,0.0,0.0,0.0,0.0,0.0,0.0,0.0,0.0,0.0,0.0,0.0,0.0,0.0,0.0,0.0,0.0,0.0,0.0,0.0,0.0,0.0,0.0,0.0,0.0,0.0,0.0,0.0,0.0,0.0,0.0,0.0,0.0,0.0,0.0,0.0,0.0,0.0,0.0,0.0,0.0,0.0,0.0,0.0,0.0,0.0,0.0,0.0,0.0,0.0,0.0,0.0,0.0,0.0,0.0,0.0,0.0,0.0,0.0,0.0,0.0,0.0,0.0,0.0,0.0,0.0,0.0,0.0,0.0,0.0,0.0,0.0,0.0,0.0,0.0,0.0,0.0,0.0,0.0,0.0,0.0,0.0,0.0,0.0,0.0,0.0,0.0,0.0,0.0,0.0,0.0,0.0,0.0,0.0,0.0,0.0,0.0,0.0,0.0,0.0,0.0,0.0,0.0,0.0,0.0,0.0,0.0,0.0,0.0,0.0,0.0,0.0,0.0,0.0,0.0,0.0,0.0,0.0,0.0,0.0,0.0,0.0,0.0,0.0,0.0,0.0,0.0,0.0,0.0,0.0,0.0,0.0,0.0,0.0,0.0,0.0,0.0,0.0,0.0,0.0,0.0,0.0,0.0,0.0,0.0,0.0,0.0,0.0,0.0,0.0,0.0,0.0,0.0,0.0,0.0,0.0,0.0,0.0,0.0,0.0,0.0,0.0,0.0,0.0,0.0,0.0,0.0,0.0,0.0,0.0,0.0,0.0,0.0,0.0,0.0,0.0,0.0,0.0,0.0,0.0,0.0,0.0,0.0,0.0,0.0,0.0,0.0,0.0,0.0,0.0,0.0,0.0,0.0,0.0,0.0,0.0,0.0,0.0,0.0,0.0,0.0,0.0,0.0,0.0,0.0,0.0,0.0,0.0,0.0,0.0,0.0,0.0,0.0,0.0,0.0,0.0,0.0,0.0,0.0,0.0,0.0,0.0,0.0,0.0,0.0,0.0,0.0,0.0,0.0,0.0,0.0,0.0,0.0,0.0,0.0,0.0,0.0,0.0,0.0,0.0,0.0,0.0,0.0,0.0,0.0,0.0,0.0,0.0,0.0,0.0,0.0,0.0,0.0,0.0,0.0,0.0,0.0,0.0,0.0,0.0,0.0,0.0,0.0,0.0,0.0,0.0,0.0,0.0,0.0,0.0,0.0,0.0,0.0,0.0,0.0,0.0,0.0,0.0,0.0,0.0,0.0,0.0,0.0,0.0,0.0,0.0,0.0,0.0,0.0,0.0,0.0,0.0,0.0,0.0,0.0,0.0,0.0,0.0,0.0,0.0,0.0,0.0,0.0,0.0,0.0,0.0,0.0,0.0,0.0,0.0,0.0,0.0,0.0,0.0,0.0,0.0,0.0,0.0,0.0,0.0,0.0,0.0,0.0,0.0,0.0,0.0,0.0,0.0,0.0,0.0,0.0,0.0,0.0,0.0,0.0,0.0,0.0,0.0,0.0,0.0,0.0,0.0,0.0,0.0,0.0,0.0,0.0,0.0,0.0,0.0,0.0,0.0,0.0,0.0,0.0,0.0,0.0,0.0,0.0,0.0,0.0,0.0,0.0,0.0,0.0,0.0,0.0,0.0,0.0,0.0,0.0,0.0,0.0,0.0,0.0,0.0,0.0,0.0,0.0,0.0,0.0,0.0,0.0,0.0,0.0,0.0,0.0,0.0,0.0,0.0,0.0,0.0,0.0,0.0,0.0,0.0,0.0,0.0,0.0,0.0,0.0,0.0,0.0,0.0,0.0,0.0,0.0,0.0,0.0,0.0,0.0,0.0,0.0,0.0,0.0,0.0,0.0,0.0,0.0,0.0,0.0,0.0,0.0,0.0,0.0,0.0,0.0,0.0,0.0,0.0,0.0,0.0,0.0,0.0,0.0,0.0,0.0,0.0,0.0,0.0,0.0,0.0,0.0,0.0,0.0,0.0,0.0,0.0,0.0,0.0,0.0,0.0,0.0,0.0,0.0,0.0,0.0,0.0,0.0,0.0,0.0,0.0,0.0,0.0,0.0,0.0,0.0,0.0,0.0,0.0,0.0,0.0,0.0,0.0,0.0,0.0,0.0,0.0,0.0,0.0,0.0,0.0,0.0,0.0,0.0,0.0,0.0,0.0,0.0,0.0,0.0,0.0,0.0,0.0,0.0,0.0,0.0,0.0,0.0,0.0,0.0,0.0,0.0,0.0,0.0,0.0,0.0,0.0,0.0,0.0,0.0,0.0,0.0,0.0,0.0,0.0,0.0,0.0,0.0,0.0,0.0,0.0,0.0,0.0,0.0,0.0,0.0,0.0,0.0,0.0,0.0,0.0,0.0,0.0,0.0,0.0,0.0,0.0,0.0,0.0,0.0,0.0,0.0,0.0,0.0,0.0,0.0,0.0,0.0,0.0,0.0,0.0,0.0,0.0,0.0,0.0,0.0,0.0,0.0,0.0,0.0,0.0,0.0,0.0,0.0,0.0,0.0,0.0,0.0,0.0,0.0,0.0,0.0,0.0,0.0,0.0,0.0,0.0,0.0,0.0,0.0,0.0,0.0,0.0,0.0,0.0,0.0,0.0,0.0,0.0,0.0,0.0,0.0,0.0,0.0,0.0,0.0,0.0,0.0,0.0,0.0,0.0,0.0,0.0,0.0,0.0,0.0,0.0,0.0,0.0,0.0,0.0,0.0,0.0,0.0,0.0,0.0,0.0,0.0,0.0,0.0,0.0,0.0,0.0,0.0,0.0,0.0,0.0,0.0,0.0,0.0,0.0,0.0,0.0,0.0,0.0,0.0,0.0,0.0,0.0,0.0,0.0,0.0,0.0,0.0,0.0,0.0,0.0,0.0,0.0,0.0,0.0,0.0,0.0,0.0,0.0,0.0,0.0,0.0,
0.0,0.0,0.0,0.0,0.0,0.0,0.0,0.0,0.0,0.0,0.0,0.0,0.0,0.0,0.0,0.0,0.0,0.0,0.0,0.0,0.0,0.0,0.0,0.0,0.0,0.0,0.0,0.0,0.0,0.0,0.0,0.0,0.0,0.0,0.0,0.0,0.0,0.0,0.0,0.0,0.0,0.0,0.0,0.0,0.0,0.0,0.0,0.0,0.0,0.0,0.0,0.0,0.0,0.0,0.0,0.0,0.0,0.0,0.0,0.0,0.0,0.0,0.0,0.0,0.0,0.0,0.0,0.0,0.0,0.0,0.0,0.0,0.0,0.0,0.0,0.0,0.0,0.0,0.0,0.0,0.0,0.0,0.0,0.0,0.0,0.0,0.0,0.0,0.0,0.0,0.0,0.0,0.0,0.0,0.0,0.0,0.0,0.0,0.0,0.0,0.0,0.0,0.0,0.0,0.0,0.0,0.0,0.0,0.0,0.0,0.0,0.0,0.0,0.0,0.0,0.0,0.0,0.0,0.0,0.0,0.0,0.0,0.0,0.0,0.0,0.0,0.0,0.0,0.0,0.0,0.0,0.0,0.0,0.0,0.0,0.0,0.0,0.0,0.0,0.0,0.0,0.0,0.0,0.0,0.0,0.0,0.0,0.0,0.0,0.0,0.0,0.0,0.0,0.0,0.0,0.0,0.0,0.0,0.0,0.0,0.0,0.0,0.0,0.0,0.0,0.0,0.0,0.0,0.0,0.0,0.0,0.0,0.0,0.0,0.0,0.0,0.0,0.0,0.0,0.0,0.0,0.0,0.0,0.0,0.0,0.0,0.0,0.0,0.0,0.0,0.0,0.0,0.0,0.0,0.0,0.0,0.0,0.0,0.0,0.0,0.0,0.0,0.0,0.0,0.0,0.0,0.0,0.0,0.0,0.0,0.0,0.0,0.0,0.0,0.0,0.0,0.0,0.0,0.0,0.0,0.0,0.0,0.0,0.0,0.0,0.0,0.0,0.0,0.0,0.0,0.0,0.0,0.0,0.0,0.0,0.0,0.0,0.0,0.0,0.0,0.0,0.0,0.0,0.0,0.0,0.0,0.0,0.0,0.0,0.0,0.0,0.0,0.0,0.0,0.0,0.0,0.0,0.0,0.0,0.0,0.0,0.0,0.0,0.0,0.0,0.0,0.0,0.0,0.0,0.0,0.0,0.0,0.0,0.0,0.0,0.0,0.0,0.0,0.0,0.0,0.0,0.0,0.0,0.0,0.0,0.0,0.0,0.0,0.0,0.0,0.0,0.0,0.0,0.0,0.0,0.0,0.0,0.0,0.0,0.0,0.0,0.0,0.0,0.0,0.0,0.0,0.0,0.0,0.0,0.0,0.0,0.0,0.0,0.0,0.0,0.0,0.0,0.0,0.0,0.0,0.0,0.0,0.0,0.0,0.0,0.0,0.0,0.0,0.0,0.0,0.0,0.0,0.0,0.0,0.0,0.0,0.0,0.0,0.0,0.0,0.0,0.0,0.0,0.0,0.0,0.0,0.0,0.0,0.0,0.0,0.0,0.0,0.0,0.0,0.0,0.0,0.0,0.0,0.0,0.0,0.0,0.0,0.0,0.0,0.0,0.0,0.0,0.0,0.0,0.0,0.0,0.0,0.0,0.0,0.0,0.0,0.0,0.0,0.0,0.0,0.0,0.0,0.0,0.0,0.0,0.0,0.0,0.0,0.0,0.0,0.0,0.0,0.0,0.0,0.0,0.0,0.0,0.0,0.0,0.0,0.0,0.0,0.0,0.0,0.0,0.0,0.0,0.0,0.0,0.0,0.0,0.0,0.0,0.0,0.0,0.0,0.0,0.0,0.0,0.0,0.0,0.0,0.0,0.0,0.0,0.0,0.0,0.0,0.0,0.0,0.0,0.0,0.0,0.0,0.0,0.0,0.0,0.0,0.0,0.0,0.0,0.0,0.0,0.0,0.0,0.0,0.0,0.0,0.0,0.0,0.0,0.0,0.0,0.0,0.0,0.0,0.0,0.0,0.0,0.0,0.0,0.0,0.0,0.0,0.0,0.0,0.0,0.0,0.0,0.0,0.0,0.0,0.0,0.0,0.0,0.0,0.0,0.0,0.0,0.0,0.0,0.0,0.0,0.0,0.0,0.0,0.0,0.0,0.0,0.0,0.0,0.0,0.0,0.0,0.0,0.0,0.0,0.0,0.0,0.0,0.0,0.0,0.0,0.0,0.0,0.0,0.0,0.0,0.0,0.0,0.0,0.0,0.0,0.0,0.0,0.0,0.0,0.0,0.0,0.0,0.0,0.0,0.0,0.0,0.0,0.0,0.0,0.0,0.0,0.0,0.0,0.0,0.0,0.0,0.0,0.0,0.0,0.0,0.0,0.0,0.0,0.0,0.0,0.0,0.0,0.0,0.0,0.0,0.0,0.0,0.0,0.0,0.0,0.0,0.0,0.0,0.0,0.0,0.0,0.0,0.0,0.0,0.0,0.0,0.0,0.0,0.0,0.0,0.0,0.0,0.0,0.0,0.0,0.0,0.0,0.0,0.0,0.0,0.0,0.0,0.0,0.0,0.0,0.0,0.0,0.0,0.0,0.0,0.0,0.0,0.0,0.0,0.0,0.0,0.0,0.0,0.0,0.0,0.0,0.0,0.0,0.0,0.0,0.0,0.0,0.0,0.0,0.0,0.0,0.0,0.0,0.0,0.0,0.0,0.0,0.0,0.0,0.0,0.0,0.0,0.0,0.0,0.0,0.0,0.0,0.0,0.0,0.0,0.0,0.0,0.0,0.0,0.0,0.0,0.0,0.0,0.0,0.0,0.0,0.0,0.0,0.0,0.0,0.0,0.0,0.0,0.0,0.0,0.0,0.0,0.0,0.0,0.0,0.0,0.0,0.0,0.0,0.0,0.0,0.0,0.0,0.0,0.0,0.0,0.0,0.0,0.0,0.0,0.0,0.0,0.0,0.0,0.0,0.0,0.0,0.0,0.0,0.0,0.0,0.0,0.0,0.0,0.0,0.0,0.0,0.0,0.0,0.0,0.0,0.0,0.0,0.0,0.0,0.0,0.0,0.0,0.0,0.0,0.0,0.0,0.0,0.0,0.0,0.0,0.0,0.0,0.0,0.0,0.0,0.0,0.0,0.0,0.0,0.0,0.0,0.0,0.0,0.0,0.0,0.0,0.0,0.0,0.0,0.0,0.0,0.0,0.0,0.0,0.0,0.0,0.0,0.0,0.0,0.0,0.0,0.0,0.0,0.0,0.0,0.0,0.0,0.0,0.0,0.0,0.0,0.0,0.0,0.0,0.0,0.0,0.0,0.0,0.0,0.0,0.0,0.0,0.0,0.0,0.0,0.0,0.0,0.0,0.0,0.0,0.0,0.0,0.0,0.0,0.0,0.0,0.0,0.0,0.0,0.0,0.0,0.0,0.0,0.0,0.0,0.0,0.0,0.0,0.0,0.0,0.0,
5.64010e-02,6.41924e-02,-5.51505e-02,-7.78448e-02,6.05282e-02,7.71451e-02,-5.97571e-02,3.15408e-02,-3.86354e-02,-6.38828e-03,3.17990e-02,-6.54345e-02,-6.95861e-02,-4.72346e-03,-4.17248e-02,9.09297e-04,-2.34824e-03,2.84418e-03,7.15457e-02,-1.35397e-02,1.16250e-02,-5.46645e-02,-2.97091e-02,8.03331e-02,-6.30152e-02,-7.53677e-02,-2.66018e-02,6.21039e-02,-2.06482e-02,-2.47627e-02,2.50189e-02,1.14103e-02,-7.06479e-02,5.10092e-02,3.92210e-02,-6.19126e-03,2.51506e-02,9.83728e-03,-7.03003e-02,5.92705e-03,-5.21652e-02,-4.77931e-02,5.58846e-02,1.42650e-02,-8.75320e-03,3.35976e-02,6.40119e-02,2.35010e-02,-1.10030e-01,-7.69562e-02,7.66790e-02,5.23989e-02,-5.71756e-02,-4.50756e-02,-3.08830e-02,4.60342e-02,-5.94292e-02,-3.24948e-02,-9.88859e-03,4.97767e-02,-5.44527e-02,2.96055e-02,2.21277e-02,-2.74490e-03,7.34354e-02,1.15455e-02,1.14629e-01,1.83929e-01,5.90523e-02,-4.71236e-02,-3.71175e-02,-1.35417e-02,-9.28604e-02,-5.84815e-02,1.40575e-01,1.01146e-01,1.12137e-01,4.95953e-02,6.59981e-02,3.45455e-02,1.05420e-01,-4.21257e-02,-4.86578e-02,-8.31740e-03,3.92244e-02,7.59055e-02,7.99140e-02,5.01393e-03,-8.10687e-03,9.81418e-02,2.30182e-02,9.94422e-02,-2.19649e-02,-9.61232e-02,-3.67087e-02,5.64329e-02,4.81084e-02,-8.56146e-02,-1.58123e-01,-1.38168e-01,-1.78359e-01,-1.07621e-01,2.12248e-02,2.34897e-02,-2.35104e-02,-1.33212e-01,1.04943e-03,6.99012e-02,8.40764e-02,1.25772e-01,2.20907e-01,-4.30899e-02,3.40082e-02,1.71758e-02,5.63420e-02,1.39407e-01,-9.35650e-04,8.52443e-02,-7.37625e-02,-1.22954e-01,6.47523e-02,1.41588e-02,6.88487e-02,-9.37639e-02,-9.90508e-02,-1.29451e-01,-1.34567e-01,7.91923e-02,1.23709e-01,3.33683e-02,-5.89832e-02,-6.03556e-02,-2.87256e-02,-1.94075e-01,-1.77129e-01,-6.80276e-02,5.04521e-03,1.54326e-01,1.58364e-01,7.04978e-02,3.45446e-02,8.21558e-02,1.30962e-01,1.19424e-01,1.34933e-01,-2.37303e-02,-3.20512e-02,3.15575e-03,-4.43595e-02,-1.14215e-01,-3.09115e-02,-1.28179e-02,5.71046e-03,-2.51697e-02,4.50071e-02,8.50607e-04,1.42607e-01,1.38476e-01,2.81356e-02,5.43394e-02,1.16012e-01,1.18027e-02,4.16068e-03,-3.53368e-02,-3.43096e-02,1.36767e-03,1.95942e-01,1.34324e-01,-4.77149e-02,1.20034e-02,-4.62279e-02,4.85271e-03,-5.17430e-03,-5.64355e-02,-2.23718e-03,3.08831e-02,-6.08397e-02,1.25629e-01,1.02111e-01,1.12863e-01,1.12716e-02,5.74842e-02,5.49569e-02,2.50334e-02,2.37850e-02,-7.98815e-03,1.36252e-01,9.19689e-02,-4.47929e-02,4.37676e-03,-7.76415e-02,3.88756e-02,1.43614e-01,8.12674e-02,1.96209e-01,6.03497e-02,1.43296e-03,1.27549e-01,-7.80768e-02,-9.41218e-02,3.93800e-02,7.28836e-03,5.55666e-02,-7.15730e-02,1.00400e-01,1.11882e-02,5.20405e-02,3.88586e-02,2.81923e-02,1.06413e-01,9.73325e-02,1.01030e-01,5.95432e-02,4.94673e-02,1.53897e-01,5.27594e-02,2.49682e-02,1.86409e-01,1.27522e-01,1.56257e-01,-6.69153e-02,1.04911e-01,1.53616e-01,-1.85145e-02,-3.75420e-03,7.56404e-02,6.01874e-03,4.08070e-02,1.66439e-02,4.54808e-02,-7.47341e-02,6.60421e-02,8.42023e-02,1.16130e-01,9.21462e-02,-6.17847e-02,6.31357e-02,8.55162e-03,9.69663e-02,-4.43774e-03,4.90741e-02,1.55386e-01,5.73352e-02,1.17882e-01,5.04674e-02,5.56017e-02,3.04295e-01,1.71824e-01,9.32517e-02,7.90833e-02,7.29531e-02,7.99910e-02,-5.81834e-02,2.12106e-02,1.12486e-01,-3.97978e-04,-3.01344e-02,4.73763e-03,9.86149e-02,1.17636e-01,8.24087e-02,4.92691e-02,-8.85670e-02,-1.08052e-02,1.77221e-02,-2.45394e-02,3.77438e-02,-4.14854e-02,2.94505e-02,3.36301e-02,3.39935e-02,1.04872e-01,5.84729e-02,-1.56576e-03,1.75085e-01,1.25732e-01,1.37349e-01,1.39810e-01,1.12177e-01,1.19747e-01,-1.58228e-02,7.57658e-02,-4.79786e-02,1.50462e-01,2.01329e-01,-9.68469e-03,1.75882e-01,3.68937e-02,4.01621e-02,-1.26797e-01,-4.55533e-03,-2.03437e-01,-7.85386e-02,3.21229e-03,4.37717e-02,-2.25616e-02,-4.05142e-02,-5.18918e-02,3.47446e-02,-7.06036e-03,-2.72266e-02,-9.28144e-02,-5.35751e-02,3.17607e-02,1.06449e-01,1.58296e-01,1.08319e-01,9.66892e-03,-7.86282e-02,1.70345e-02,-1.15371e-01,9.33496e-02,1.07442e-01,7.06891e-05,-6.74195e-03,-1.17254e-01,-1.49618e-01,-1.71841e-01,-1.27499e-01,-1.61469e-01,-1.14113e-01,-1.48824e-02,1.03219e-01,-1.19106e-01,-8.18744e-02,-7.82848e-02,-1.32741e-01,-1.79344e-01,-1.67865e-01,-2.28684e-01,-2.79852e-01,-2.64957e-01,-1.43603e-01,-1.22983e-03,-1.51214e-03,3.86350e-03,-6.41318e-02,4.34827e-02,-6.60136e-02,1.27424e-01,1.24560e-01,-7.89646e-03,-4.98503e-02,-8.42232e-02,-3.87203e-02,-8.39030e-02,-7.04899e-02,-1.08688e-01,6.91938e-02,4.45453e-02,1.20270e-01,-3.82051e-02,-1.28457e-01,-9.98891e-02,-1.30055e-01,-2.51031e-01,-1.78872e-01,-2.29164e-01,-3.83111e-01,-4.61623e-01,-3.64943e-01,-2.05275e-01,4.93963e-02,-2.74099e-02,-4.92773e-02,-2.04859e-03,-1.77374e-02,1.07105e-01,-8.12863e-02,3.04794e-02,7.24624e-02,-5.88761e-02,2.72661e-02,-1.75210e-02,-7.51288e-02,2.48468e-02,3.48351e-02,1.77313e-01,8.00616e-02,-1.36336e-01,-1.51151e-01,-1.83260e-01,-6.66268e-02,-1.53904e-01,-1.10484e-01,-2.36151e-01,-3.60701e-01,-3.95689e-01,-3.05039e-01,-1.07227e-01,-9.24472e-02,-4.53728e-02,1.34808e-01,1.00047e-01,1.29352e-01,5.77263e-02,-1.33032e-01,-8.52581e-02,-1.80058e-02,-8.39568e-02,-6.38187e-02,1.10702e-01,2.48181e-02,1.00771e-01,3.77226e-02,2.53252e-03,7.18893e-02,9.60014e-03,-6.76324e-02,-5.83284e-02,-8.17944e-02,-7.12076e-02,-4.46489e-02,9.40894e-03,-3.10383e-01,-2.76999e-01,-2.38787e-01,-2.96232e-02,-1.62831e-02,-6.54026e-02,9.85152e-03,1.05161e-01,1.67832e-01,-1.90082e-01,-1.07383e-01,-5.45928e-02,-9.76440e-02,-1.03886e-02,4.02483e-02,1.09774e-01,3.53003e-02,4.17116e-02,-4.14471e-02,6.04902e-02,9.19680e-02,-9.76600e-02,-9.21870e-02,-1.27487e-01,-1.19626e-01,-6.53616e-02,-1.10680e-01,-3.37413e-02,-1.10881e-01,5.04767e-03,-6.02249e-02,-8.86090e-02,-1.00340e-01,2.73445e-03,-6.03733e-02,1.70335e-01,3.11982e-01,3.89732e-02,-2.94196e-02,5.50141e-02,2.56416e-02,-4.01288e-02,-7.62196e-02,4.01448e-02,1.45918e-03,-1.31231e-01,-6.30279e-02,5.97170e-02,9.99110e-02,-1.13261e-01,-4.37002e-02,-7.74477e-02,-1.89218e-02,-5.70648e-02,-9.53442e-02,1.14790e-01,2.01157e-01,2.01303e-01,1.15592e-01,3.07925e-02,-3.22707e-02,7.74326e-02,4.14623e-02,8.43855e-03,1.26304e-01,-5.62877e-02,-3.06422e-02,-3.17731e-02,-1.61601e-01,-6.38524e-02,-1.41342e-01,-1.27279e-01,-1.95977e-01,-8.83976e-02,-1.33954e-01,6.99336e-02,-5.09519e-02,-1.28264e-01,-6.48528e-02,9.88952e-02,-4.12162e-02,1.38058e-01,7.75196e-02,1.74553e-01,1.66584e-01,2.47578e-01,1.15486e-01,5.08893e-02,2.14582e-02,-8.33880e-03,-3.42238e-02,-4.80450e-02,4.86235e-02,3.04401e-03,4.83128e-02,-6.75502e-02,-5.66772e-02,-9.29206e-03,-1.52804e-02,-6.65310e-02,-1.89318e-01,-8.96445e-02,-1.56549e-02,-1.05653e-02,-6.64752e-02,-1.28865e-01,-1.06689e-01,-1.30377e-02,3.48802e-02,7.12890e-02,1.48058e-01,5.50789e-02,8.27641e-02,1.48638e-01,8.10045e-02,-1.91086e-02,-8.49408e-02,4.97173e-02,-3.75644e-02,5.61854e-02,1.71183e-01,9.25421e-02,8.78568e-03,-9.71654e-02,3.18262e-02,4.79556e-02,4.60240e-02,-4.42808e-02,-1.33829e-02,-5.24925e-02,4.57008e-02,6.59106e-02,-5.17309e-02,-1.98088e-01,-1.66285e-02,5.18383e-02,4.65700e-03,4.18393e-02,7.18276e-02,3.53055e-02,6.03027e-03,2.54665e-01,1.48572e-01,1.70970e-01,3.94338e-03,5.23767e-02,1.36760e-02,-1.25838e-02,-3.03239e-02,2.00170e-01,3.36848e-02,-4.66339e-02,1.91839e-02,-1.11893e-02,-8.52909e-03,3.10200e-02,2.49123e-02,-5.98898e-02,5.73957e-02,9.62772e-02,-7.05449e-02,-1.08711e-01,-2.57942e-03,1.12814e-01,1.08118e-01,5.75093e-02,1.25004e-01,1.04113e-01,2.00972e-01,1.74945e-01,4.23201e-02,2.92113e-02,3.61976e-02,7.59680e-02,8.33654e-02,-1.17634e-02,5.54681e-02,8.74934e-02,1.78158e-03,-8.40301e-02,8.42470e-02,9.99146e-02,-8.47040e-03,-5.14847e-02,3.81770e-02,-1.44932e-03,5.57337e-02,7.52944e-02,-3.96241e-02,5.36087e-02,3.11731e-02,4.98113e-02,-1.22656e-02,6.07304e-02,1.15238e-01,1.19253e-01,1.92807e-01,1.32464e-01,9.12292e-02,1.18918e-01,9.98027e-02,7.27900e-03,-3.43574e-03,2.66977e-02,7.55427e-02,1.62740e-01,4.59069e-02,2.03504e-02,1.67705e-04,1.32243e-01,-5.07457e-02,-4.93873e-02,-4.29625e-03,1.07195e-01,6.53334e-03,3.08657e-02,7.12399e-02,1.48896e-01,7.18683e-02,2.82431e-02,4.03184e-02,1.58679e-01,1.67491e-01,4.49379e-02,2.09007e-01,2.16906e-01,1.35899e-01,9.35608e-02,-3.11104e-03,2.02224e-02,6.62551e-02,-3.36080e-02,2.17632e-01,2.51777e-01,3.05141e-01,2.40712e-01,1.30902e-01,1.51200e-01,1.58009e-02,1.85672e-01,1.50329e-01,9.97833e-02,1.68742e-01,5.48912e-02,7.03531e-02,1.57953e-01,1.90051e-01,8.33453e-02,1.04803e-01,1.22393e-01,-3.89477e-03,-3.59948e-02,-3.77814e-02,3.43899e-02,1.21840e-01,4.99018e-02,8.09679e-02,-6.28827e-02,1.27763e-02,-6.22434e-02,-5.64132e-02,1.11974e-01,1.69590e-01,2.45068e-02,1.08070e-01,1.98191e-01,1.04853e-01,8.49578e-02,7.17615e-02,6.21224e-02,1.71166e-01,2.25246e-01,2.14803e-01,9.25876e-02,5.12158e-02,1.07549e-01,1.53490e-01,-4.97458e-02,-5.10699e-02,-1.17388e-01,-3.02175e-02,-3.16631e-03,7.33662e-02,2.92060e-02,5.68606e-02,1.77943e-02,3.28678e-02,2.00251e-02,-1.95866e-02,2.00779e-02,-4.25341e-02,-9.67721e-02,8.60491e-02,1.51700e-01,1.29304e-01,6.95018e-02,1.23249e-01,4.39989e-02,1.70081e-01,7.92621e-02,7.82515e-02,1.53327e-02,8.55034e-02,6.60043e-02,-2.97178e-02,5.75309e-02,-1.67987e-01,-1.41224e-01,1.21519e-02,8.50340e-02,1.42942e-01,-3.06440e-02,-4.82654e-02,7.09101e-02,-1.06263e-02,1.36541e-02,-4.97432e-02,4.28973e-02,8.27101e-02,1.99289e-02,-1.24059e-01,-6.14040e-04,5.69621e-03,-2.84012e-03,-6.48821e-02,-3.21004e-02,1.13321e-01,1.50669e-02,-2.51971e-01,-1.71367e-01,5.56971e-02,-4.91470e-02,6.50319e-02,-6.47874e-02,4.38623e-02,4.54188e-02,-1.69381e-02,3.11820e-03,6.48212e-02,2.85100e-02,1.40418e-03,4.59400e-02,-7.50475e-03,-9.62029e-03,-2.27423e-02,3.13475e-02,-4.11634e-02,1.29104e-02,-1.73618e-03,-4.15842e-02,-3.15031e-02,-6.73033e-02,-4.88312e-02,8.86090e-02,-1.28818e-02,-6.73933e-02,-1.01028e-01,-3.01231e-02,-2.34127e-02,-1.47597e-01,-1.53659e-01,-8.75749e-02,-4.64897e-02,-1.26626e-01,-1.26017e-01,-6.36966e-02,-5.48147e-02,-3.46668e-02,1.11086e-02,4.78295e-02,
4.77155e-02,5.06998e-02,2.96239e-02,3.46786e-02,6.32015e-02,1.88483e-02,-3.79830e-02,-7.64932e-02,-7.90491e-02,-3.12906e-02,-4.52220e-04,3.50630e-02,-4.84531e-02,1.17311e-03,-2.43275e-02,2.89875e-02,-5.71386e-02,2.49884e-02,-5.27333e-03,-2.18156e-02,-7.67542e-02,7.65662e-02,7.54461e-02,8.97305e-03,4.07276e-03,-4.34561e-02,-1.83013e-02,4.70391e-02,-4.07844e-02,-1.07127e-02,-7.91891e-02,5.83656e-02,-8.71881e-03,-1.24645e-02,9.08557e-02,-1.64273e-02,1.32516e-02,5.30219e-02,-3.89937e-02,-7.29438e-02,3.36104e-02,7.61510e-03,1.31816e-01,2.22005e-01,9.10046e-02,-3.62763e-03,1.54943e-01,3.80979e-02,9.00065e-02,2.73142e-02,6.92181e-02,5.94536e-02,-5.75301e-02,1.33020e-02,-1.34078e-02,-6.03942e-02,-7.68164e-02,-7.53891e-02,6.89407e-03,-5.63871e-02,1.06126e-01,-4.24628e-03,1.33063e-02,3.60256e-02,-2.96133e-02,5.50076e-03,-1.35174e-01,-8.83291e-02,-1.01717e-01,-6.33993e-02,1.41302e-01,2.14293e-01,3.28350e-01,2.67239e-01,3.10886e-01,2.24415e-01,1.96062e-02,-1.10316e-02,2.74955e-03,3.39444e-02,-1.22575e-01,4.17328e-02,8.03091e-02,3.74982e-02,-7.89592e-02,-6.18322e-03,4.81030e-02,3.40150e-02,-2.17897e-02,1.25414e-01,-5.37834e-02,9.56471e-02,-3.22908e-02,-1.48419e-01,-1.71435e-01,-2.19061e-01,-1.25713e-01,-8.03893e-02,-2.20561e-02,2.78213e-02,1.20210e-01,1.75418e-01,2.85725e-01,-2.02753e-02,-2.24929e-01,-1.09254e-01,-1.52999e-01,-1.29981e-01,5.12234e-02,-1.03118e-01,3.83454e-02,1.05502e-02,3.60105e-02,-5.21943e-02,-1.54350e-02,6.89280e-03,1.06019e-01,1.66624e-01,-3.13511e-02,-4.75987e-02,-1.09579e-02,-9.60407e-02,-2.35481e-01,-1.19234e-01,-7.13461e-02,-6.42545e-02,5.01239e-02,2.18920e-02,-5.33850e-03,1.19364e-01,1.70588e-01,-9.29245e-02,-2.51868e-01,-1.03137e-01,-3.20019e-02,1.30236e-01,-5.99866e-02,7.07915e-02,2.35787e-01,8.80443e-02,-8.01834e-02,-4.71120e-02,-3.59128e-02,7.71047e-02,9.92925e-02,1.61830e-01,7.05034e-02,-7.70706e-02,-1.52500e-01,-1.93272e-01,-2.39168e-01,-8.41454e-02,2.34831e-02,1.07799e-01,8.01186e-03,7.43221e-02,7.92583e-02,8.22563e-03,-1.22170e-01,-1.61911e-01,1.67703e-02,-6.58594e-02,8.31966e-03,1.10073e-01,-1.50912e-02,3.42436e-02,1.21981e-01,-3.10646e-02,5.87349e-02,-5.08256e-03,1.57321e-01,1.22537e-01,1.50543e-02,7.11749e-02,-1.07962e-01,-1.32872e-01,-1.82982e-01,-2.45471e-01,-7.77954e-02,-8.52027e-02,2.99111e-02,-9.18886e-03,8.70609e-04,8.67811e-02,5.79168e-02,-1.12002e-01,-1.51446e-01,-1.17635e-01,9.38255e-02,6.83139e-02,-3.63880e-02,9.54806e-02,1.57531e-01,1.97655e-01,2.07575e-01,1.63125e-01,-1.85397e-03,1.15205e-02,2.22663e-02,1.31179e-01,8.44725e-03,2.50647e-02,-1.00321e-01,-8.53760e-02,-4.85250e-02,-4.02518e-02,-2.57395e-02,-4.07879e-02,1.01083e-02,5.97818e-03,4.75597e-02,-1.96450e-02,-8.95552e-02,-3.89903e-02,-7.78491e-02,-5.92695e-02,-1.12708e-02,-2.12841e-02,1.40493e-01,2.80812e-02,7.11388e-02,2.43172e-02,1.63785e-01,5.75636e-02,6.22827e-02,3.27530e-02,-5.95053e-02,-1.60988e-02,-1.32526e-02,9.91293e-02,5.89301e-02,8.14066e-03,-4.23300e-02,-5.69526e-02,5.17062e-03,-2.86034e-02,-3.37055e-02,-2.77255e-02,9.62735e-02,4.01359e-02,-1.06837e-01,-1.01008e-01,-1.43041e-01,-1.28023e-01,1.14825e-01,9.03477e-02,7.69725e-02,9.81731e-02,1.66881e-01,1.30575e-01,1.38446e-01,9.60510e-02,-5.56277e-02,-1.54545e-02,-4.58564e-02,2.69133e-02,7.48700e-02,8.91226e-02,1.89468e-01,9.49599e-02,7.06570e-02,-3.22775e-02,-8.40123e-02,-1.92784e-01,-1.60688e-01,-2.18124e-02,3.32294e-02,3.91122e-02,-4.94179e-02,-1.02538e-01,-3.56605e-02,-5.84015e-02,8.50748e-02,9.92231e-02,5.13455e-02,9.57554e-02,2.00511e-01,2.57934e-01,2.42020e-01,2.31562e-01,6.20344e-02,1.93660e-02,-1.72435e-02,-1.19915e-02,-5.73417e-02,7.01577e-02,-3.85043e-02,1.07390e-01,2.39879e-02,-4.44126e-02,-1.65933e-01,-1.72909e-01,-6.16764e-02,3.22825e-02,1.03595e-01,-1.36046e-02,-2.10466e-02,-1.75913e-01,-1.58470e-01,3.15430e-02,-1.02529e-01,-5.43685e-02,-4.75389e-02,7.05205e-02,6.95981e-02,1.85923e-01,1.57862e-01,5.71571e-02,-4.64233e-02,-7.81484e-02,-8.33847e-02,-9.96531e-02,5.14549e-02,-1.22305e-01,-1.92882e-01,9.04462e-03,-7.97089e-02,-8.61485e-02,-1.14495e-01,-6.46124e-02,4.45940e-02,3.36491e-02,5.40439e-02,-2.43204e-02,-8.37804e-02,-1.19907e-01,-1.93433e-01,-3.07421e-01,-2.92686e-01,-1.33092e-01,-9.88674e-02,-5.95595e-02,-9.93032e-02,-2.08344e-03,-3.91860e-02,2.01135e-02,-6.16467e-02,-1.18553e-01,-1.22464e-01,-1.41252e-01,-5.90610e-02,-4.60404e-02,1.44090e-02,-3.61902e-02,1.34131e-01,5.95740e-02,4.96703e-02,7.39524e-02,2.98848e-02,1.18688e-01,-8.54342e-03,-1.11556e-01,-1.25171e-01,-2.54543e-01,-2.25998e-01,-1.92850e-01,-1.59289e-01,-1.66802e-01,-2.51332e-01,-3.28325e-01,-2.74593e-01,-1.22193e-01,-2.91002e-02,1.04660e-01,1.97440e-02,1.79855e-02,-4.41125e-02,-1.44665e-01,5.02226e-02,1.14112e-01,9.64860e-02,1.46207e-01,5.38991e-02,1.00134e-01,9.48017e-02,9.14304e-02,1.43390e-01,1.71542e-02,-6.49176e-03,-9.42228e-02,-9.06125e-02,-2.08861e-02,-1.54983e-01,-1.16621e-01,-1.72617e-01,-1.60865e-01,-1.10028e-01,-8.94739e-02,-2.09319e-01,3.95584e-02,3.26527e-02,2.83551e-02,5.87357e-02,2.82334e-02,-4.23069e-02,-5.26336e-02,1.83266e-02,7.73178e-02,1.58919e-01,1.25000e-01,1.43698e-01,6.92898e-02,2.37991e-02,-7.30009e-02,2.09749e-02,1.67953e-02,3.04525e-02,2.82388e-02,-4.14646e-02,-8.58098e-02,-8.46123e-02,-1.34478e-01,1.19764e-04,-2.19261e-02,2.47978e-02,-5.15856e-02,-9.12787e-02,3.24047e-02,-1.56623e-01,-9.27262e-02,6.79121e-02,5.68623e-02,-9.75999e-02,4.03706e-02,1.38636e-01,5.75933e-02,2.92432e-02,-5.54980e-02,-1.43199e-02,-5.10843e-02,-8.63046e-02,-1.08575e-01,5.91488e-02,-3.51245e-02,-6.23016e-02,-5.22054e-04,-4.00387e-02,-8.23270e-02,1.86165e-02,-1.54405e-01,-6.96408e-02,-8.21691e-02,-2.58240e-02,-9.32930e-02,-3.88695e-02,-5.26531e-02,-5.93002e-02,5.17995e-02,-2.43867e-03,-5.70956e-02,-2.63426e-03,-7.46181e-02,8.25643e-02,1.52849e-02,-2.40349e-01,-1.58595e-01,-1.25035e-01,-1.69795e-01,-2.23499e-01,-9.70362e-02,1.35185e-02,-2.87245e-02,-3.18585e-02,-6.34368e-02,-5.40955e-02,-1.57970e-02,5.55967e-03,-1.14475e-01,-4.88602e-05,2.59687e-02,4.10604e-02,5.73437e-02,3.96870e-02,-1.15392e-01,-8.30034e-02,2.87004e-02,-6.78703e-02,-4.27917e-02,-7.58418e-02,-1.00220e-01,1.06986e-01,3.87160e-02,-2.78720e-02,-1.53972e-01,-2.60235e-01,-3.13130e-01,-4.06692e-01,-2.59078e-01,-2.40241e-01,-1.78515e-02,6.60113e-02,8.97598e-02,9.34788e-02,5.48311e-02,1.26308e-01,1.06874e-01,9.40097e-02,1.63924e-01,1.28007e-01,8.13403e-02,-1.06653e-01,-2.15113e-01,-1.15093e-01,-6.00240e-02,-9.31208e-02,5.40937e-02,-4.82675e-02,6.93063e-02,5.89676e-02,7.29266e-02,-4.14735e-02,6.55263e-02,-6.43538e-02,-2.27806e-01,-3.07728e-01,-2.98104e-01,-1.32819e-01,1.23449e-02,3.58916e-02,1.27432e-02,7.26533e-02,1.63237e-01,1.31607e-01,-3.77295e-02,2.02556e-02,6.79541e-02,-8.05146e-02,2.69959e-02,8.43505e-02,5.36648e-02,-1.43393e-01,-4.72722e-02,-2.28225e-02,-7.38169e-02,-5.76709e-02,1.08607e-01,1.36289e-01,9.37349e-02,9.49644e-02,6.13784e-02,6.48841e-02,-2.19284e-02,-1.76992e-01,-1.61988e-01,2.59428e-02,1.08196e-01,1.03342e-02,9.43428e-02,1.23203e-01,-4.84830e-02,-3.26876e-02,-7.36740e-02,-2.43821e-02,1.69058e-02,9.10221e-03,3.58193e-02,2.23111e-01,1.04015e-01,5.12984e-02,-7.81807e-02,2.29009e-02,-1.17598e-01,-7.61051e-02,5.58172e-02,8.79405e-02,9.91781e-02,1.10254e-01,-2.06056e-02,1.21721e-01,-4.12410e-02,-4.11865e-02,1.27268e-02,4.77603e-02,8.16830e-02,1.62935e-01,1.18561e-01,-1.76347e-02,1.69814e-02,6.91446e-02,-2.47392e-02,-9.90709e-02,7.68534e-02,1.09697e-01,1.19951e-01,8.30868e-02,1.57534e-02,2.38462e-02,7.61126e-02,7.79522e-03,1.48385e-02,-9.77428e-02,4.66693e-03,1.44465e-01,6.19841e-02,2.48392e-02,6.90819e-02,4.97194e-02,-8.37465e-03,-1.21951e-01,8.06093e-02,9.64602e-02,7.45022e-02,7.63878e-02,1.47175e-01,9.98897e-02,1.04439e-01,3.01563e-02,6.69216e-02,4.70861e-02,1.47982e-01,1.14199e-01,4.98526e-02,1.33743e-03,-1.01487e-01,3.12828e-02,5.20697e-02,-1.28335e-02,-4.44753e-02,-1.66009e-01,1.58871e-02,2.99660e-02,1.29610e-01,1.14367e-02,1.79168e-02,9.42784e-02,1.72080e-02,-4.08024e-02,6.69175e-02,8.10859e-02,4.13821e-02,-2.69526e-02,1.77326e-03,4.21610e-02,1.19813e-01,5.75521e-02,4.75593e-02,-2.12879e-02,1.28157e-02,2.16306e-02,-9.62994e-02,-2.08606e-02,-1.11452e-01,-2.82562e-02,1.89046e-02,3.30384e-02,-6.68886e-02,3.05698e-02,1.49592e-01,3.11824e-02,7.58077e-02,-8.68973e-02,-1.24055e-02,1.08439e-02,7.37277e-02,9.17275e-02,-3.97580e-02,4.57366e-02,-7.43166e-02,-5.15995e-02,1.94478e-02,4.31819e-02,-2.69743e-02,-1.90215e-02,2.43479e-02,-3.38022e-02,-3.48653e-02,-1.65809e-01,-1.01899e-01,-2.78829e-02,1.59425e-03,2.28853e-02,5.67346e-02,1.02344e-02,6.74828e-02,-5.12665e-03,-6.98025e-02,-1.31672e-02,-6.86660e-02,-1.32821e-01,-3.49493e-02,2.76933e-02,6.94510e-02,3.94232e-02,2.07987e-02,4.04192e-02,3.75999e-02,7.76437e-02,-3.84795e-02,-3.12738e-02,3.38358e-02,-1.70229e-02,-9.70327e-02,-1.54691e-01,-6.01495e-02,-5.13816e-02,-5.30505e-03,4.29010e-02,-1.76116e-02,3.62521e-02,-7.24538e-02,6.75091e-02,-7.17016e-02,3.19935e-02,6.19103e-04,-9.65280e-02,-8.25916e-02,-2.03004e-01,-2.18907e-01,-1.20511e-01,2.26280e-03,-8.84852e-02,-1.36495e-01,-2.38200e-01,-1.46529e-01,-2.97280e-02,-3.47683e-02,-2.34465e-01,-1.79253e-01,1.23703e-01,2.65467e-02,-3.60641e-02,-1.92644e-02,4.44247e-02,4.17864e-02,-7.23105e-03,7.53430e-02,-6.40007e-02,-5.88586e-02,-1.87884e-02,-8.13100e-02,-3.75637e-02,-7.47277e-02,-1.96178e-02,-2.58982e-02,-1.04595e-01,-9.08200e-02,-1.92701e-01,-2.13437e-01,-1.92815e-01,-5.68956e-02,-1.54360e-01,-1.49256e-01,-6.84727e-02,-8.96353e-02,7.44647e-03,-5.81200e-02,-1.73385e-01,-1.06138e-01,-1.89028e-02,-3.58349e-02,1.86492e-02,-1.07010e-01,1.24045e-02,-2.00438e-02,-5.11852e-02,-6.17959e-02,2.91785e-03,-6.84510e-02,-2.22725e-02,3.72352e-02,5.02418e-02,-5.92922e-02,-1.06729e-03,-9.02945e-02,5.47577e-02,1.34762e-02,-6.73175e-03,-3.92194e-03,-1.30829e-02,2.64787e-03,-1.16186e-01,-6.21344e-02,6.81540e-02,6.97780e-02,-7.78296e-02,-2.84004e-02,-3.93527e-02,-2.67805e-02,6.88318e-02,-6.83124e-02,-6.07974e-02,4.58817e-02,-8.18310e-02,-8.04241e-02,
-3.10302e-02,-7.96455e-03,-2.36077e-02,3.27850e-02,-3.82918e-02,-4.29769e-02,5.32726e-02,-3.78037e-03,5.57807e-02,2.81130e-02,6.19135e-02,1.24993e-02,5.20736e-02,8.55737e-02,4.28876e-02,1.95946e-02,3.43134e-02,1.38649e-02,-5.16612e-02,-2.77163e-02,-3.22495e-02,5.04160e-02,-6.41005e-02,3.87459e-03,-5.83613e-02,6.55184e-02,-7.40559e-02,8.05346e-02,-1.63441e-02,1.85313e-02,-4.40896e-02,-3.45322e-02,1.82696e-02,-2.87933e-02,-4.76843e-02,-2.30419e-02,-7.34956e-02,-2.10196e-02,-2.32572e-02,-7.50314e-02,-1.58130e-02,9.93644e-03,-1.16951e-01,-6.31362e-02,4.39920e-02,5.66790e-02,-7.68472e-02,5.33863e-03,-1.25276e-01,-1.78386e-02,4.12978e-02,-2.54036e-02,7.97034e-02,-2.43321e-02,9.05538e-03,-1.26172e-02,2.66677e-02,2.74177e-02,-2.18187e-02,4.69852e-02,1.44030e-01,-1.21722e-02,-1.70907e-02,-4.79418e-02,-1.23482e-01,-9.31148e-02,-8.17568e-02,-3.00842e-02,-3.56800e-02,-1.17345e-02,-2.08228e-01,-1.30831e-01,-7.64758e-02,-5.67437e-02,-1.47767e-01,-6.89958e-02,-1.16893e-01,-6.66844e-02,-1.13870e-01,6.43584e-02,-1.66664e-02,2.45141e-02,-1.78447e-02,7.35720e-02,-1.95610e-02,-1.56941e-02,1.25139e-01,1.50005e-01,1.36904e-01,-1.03643e-01,-1.54084e-01,-1.46364e-01,-4.76607e-02,-1.38973e-02,-5.15773e-02,4.88297e-03,1.17974e-02,-3.69320e-02,-1.93833e-01,-1.89112e-01,-5.45825e-02,-2.25245e-02,-3.23551e-02,9.28414e-02,2.19100e-02,-1.34749e-01,-1.91887e-01,-1.17523e-01,-3.59844e-02,7.09931e-02,2.42709e-02,1.20869e-02,-5.64668e-02,6.54890e-02,3.65158e-02,5.91953e-02,4.21866e-02,-1.03659e-01,-1.10967e-01,-3.69990e-02,-1.18696e-01,8.44507e-02,1.32401e-01,1.71469e-02,-4.44875e-02,-1.41685e-01,-1.15029e-01,4.29243e-02,6.28439e-02,-4.17378e-02,-1.98139e-02,-9.68505e-02,-6.38398e-02,-9.26460e-02,-1.06008e-01,-1.28844e-01,6.05839e-02,4.86166e-02,-1.56968e-02,-1.19592e-01,4.48632e-02,-3.91924e-03,5.10568e-02,-3.18342e-02,-2.23830e-02,-1.73682e-01,-1.01464e-01,-3.87139e-02,-7.36557e-02,2.40711e-02,-4.85007e-02,6.48356e-02,-1.41578e-02,4.59264e-02,4.94586e-02,3.40054e-02,-7.48051e-02,-1.85047e-02,6.01117e-02,-5.51989e-02,-7.56833e-02,4.25793e-02,3.71706e-02,-1.16438e-01,-3.12254e-02,-1.13282e-01,4.45003e-03,-8.52794e-02,2.50490e-02,-2.97127e-02,-9.68686e-02,-5.88641e-02,7.31762e-02,-1.07517e-01,3.38781e-02,-5.30187e-02,-1.31364e-01,3.25795e-02,-1.92243e-02,-6.71446e-02,3.58021e-02,-5.94746e-02,-4.37660e-02,-6.31932e-02,-6.19806e-02,-9.70079e-02,2.84598e-02,-1.09490e-01,-5.26593e-02,-9.79552e-03,4.47791e-02,-1.75564e-02,-6.37980e-02,-1.52093e-01,-1.69825e-02,-6.82991e-02,8.10567e-02,2.85455e-04,2.15594e-02,-1.75951e-01,2.41919e-02,-1.26894e-01,-4.96843e-02,4.81691e-02,5.37464e-02,-8.56048e-02,2.44373e-02,1.08339e-01,7.38233e-02,3.72611e-03,5.48329e-02,-3.93775e-02,-6.30503e-02,-7.22836e-02,-5.39079e-02,-1.26017e-02,-1.68349e-01,3.49595e-02,-8.09219e-02,-3.87552e-02,-2.18381e-02,-1.21893e-01,-5.03504e-02,1.52009e-02,4.39661e-02,2.21841e-01,6.77539e-02,-5.20710e-03,3.10779e-03,-1.22948e-01,3.87793e-02,-2.93031e-02,-9.59685e-03,6.11074e-02,4.59504e-02,1.54971e-02,8.56467e-02,1.57439e-03,3.08667e-02,1.51894e-01,1.12054e-01,1.24836e-01,2.32502e-02,8.14464e-02,7.92232e-02,-2.01611e-02,2.17087e-01,1.12945e-01,4.90388e-03,-1.92830e-01,1.09369e-01,6.57817e-02,-7.67289e-02,7.51199e-02,3.29459e-02,4.17485e-02,-5.67090e-02,-2.10825e-02,1.27925e-01,-3.68832e-02,9.16293e-02,3.61834e-02,1.16009e-01,-5.58863e-03,9.40818e-03,1.61863e-01,1.43204e-01,1.98872e-01,1.88006e-01,6.00247e-02,-3.95154e-02,4.52258e-02,1.44258e-01,1.22224e-01,1.30080e-01,1.61986e-01,5.25404e-02,1.23641e-01,1.35066e-01,9.69278e-02,2.72533e-02,-4.87671e-02,7.65832e-02,1.58061e-01,6.12478e-02,2.79612e-02,1.22912e-01,8.30182e-03,2.00988e-01,4.15084e-02,7.29215e-02,7.75518e-02,1.70659e-02,1.18837e-01,1.64652e-01,1.20430e-01,2.40669e-01,1.43486e-01,1.27191e-01,6.14762e-02,1.16956e-01,6.37980e-02,1.57559e-01,3.26050e-01,8.17474e-02,9.41192e-02,9.46416e-02,-1.90524e-02,2.89755e-03,5.13755e-02,8.56503e-02,7.47611e-02,2.04756e-01,9.35427e-02,2.25830e-02,1.66093e-02,1.37043e-01,4.08449e-02,4.27599e-02,-1.33718e-02,-5.27130e-02,-1.11328e-02,-6.25160e-02,6.79793e-02,-4.97966e-02,3.66767e-02,2.67386e-02,4.61824e-02,1.41429e-01,1.13807e-01,2.38222e-01,1.08463e-01,1.80757e-01,2.20475e-01,9.68683e-02,6.75726e-02,-2.61950e-02,3.84011e-02,5.82436e-02,1.65342e-01,1.70626e-01,2.27473e-02,-2.80392e-02,-3.86926e-02,-1.68811e-02,7.45766e-02,-1.15570e-02,1.82117e-02,-1.59594e-01,-1.01787e-01,-9.74256e-02,-8.61604e-02,-6.43117e-02,4.04087e-02,-5.36085e-02,1.44639e-01,3.43327e-02,1.22720e-02,7.35602e-02,1.47226e-01,1.75441e-01,5.59111e-02,3.72632e-02,-2.28919e-02,7.69661e-02,-2.91538e-02,-4.22943e-02,1.93684e-01,-2.77449e-02,-1.05089e-01,5.62251e-02,-6.21010e-02,-9.66261e-02,-4.44585e-02,-3.31746e-02,-1.11182e-01,-4.52002e-02,7.89813e-02,-1.96839e-02,-2.48396e-02,-1.32725e-01,-6.59230e-02,-8.26799e-02,-7.10782e-03,5.90544e-02,-1.05326e-02,1.14802e-01,2.39401e-02,-6.94279e-02,-7.18662e-02,-5.61074e-02,5.21069e-02,-6.43261e-02,-6.00650e-02,-8.35068e-02,-3.62188e-02,6.69416e-02,-2.14609e-02,-3.28765e-02,-7.82169e-02,-7.12330e-02,-7.72421e-02,-8.14100e-02,-7.21156e-02,-7.66433e-02,-5.16282e-03,1.40331e-01,3.39751e-02,-1.07571e-01,-1.63792e-01,-1.10603e-01,-1.45277e-01,-7.72644e-03,1.07627e-01,2.17905e-02,1.06107e-01,1.79554e-01,2.42894e-02,-1.22028e-02,1.85490e-02,4.75902e-02,9.98473e-02,-4.61518e-02,-2.19517e-01,-9.67180e-02,1.04345e-01,-5.82976e-03,4.98825e-03,4.15979e-02,3.22242e-03,-3.09899e-02,-5.23479e-02,1.10825e-01,5.22517e-02,9.97359e-02,-2.65918e-02,-1.62920e-01,-1.77386e-01,-1.74575e-01,-4.16854e-02,-5.91707e-02,1.11063e-01,4.90132e-02,3.49497e-02,2.01379e-01,-1.39220e-01,2.41140e-02,5.94680e-02,-7.44085e-02,-5.88953e-02,-5.61136e-02,1.17129e-02,3.29075e-02,5.21418e-02,2.94769e-02,7.97620e-02,1.22735e-03,9.26093e-02,-4.75279e-02,1.56227e-03,1.92911e-01,2.04312e-01,1.83918e-03,-3.98513e-02,-2.32787e-01,-1.42626e-01,-6.66473e-02,-1.10657e-01,-7.27032e-03,-7.07563e-02,1.35015e-01,1.20315e-01,8.56592e-02,-6.34109e-02,-6.92730e-02,2.31716e-02,4.72159e-02,-4.36842e-02,-8.10632e-02,3.21387e-02,4.20541e-02,-6.00935e-03,-2.19932e-02,4.14003e-02,1.46465e-03,2.15541e-03,2.32352e-02,7.67241e-02,1.15941e-01,9.37867e-02,-1.64027e-02,-1.15846e-01,-1.97252e-01,-7.33341e-02,-1.03805e-01,-3.34223e-02,-4.90073e-02,-1.20618e-01,9.75334e-02,1.32025e-01,6.89420e-02,-4.21759e-02,-6.52540e-02,-1.43056e-02,6.99815e-02,2.65590e-02,-1.66036e-01,7.99804e-02,-1.42320e-01,-7.33097e-02,1.06720e-01,-4.57373e-03,-5.55485e-02,8.90400e-03,-5.66514e-03,8.66271e-02,4.52934e-02,2.94650e-02,-1.11284e-01,-1.74772e-01,-8.44643e-02,-8.46868e-02,1.18250e-02,-1.87694e-02,1.81286e-02,-2.47370e-02,2.32246e-01,2.47784e-01,1.61433e-01,-6.41314e-02,2.75622e-02,-4.40246e-02,5.52441e-02,-1.32349e-02,5.24656e-02,8.32525e-02,-1.83464e-01,-6.79613e-02,-4.53607e-02,-7.14052e-02,-3.67321e-02,-6.00124e-02,-9.65387e-02,-5.53958e-02,8.19996e-02,5.38224e-02,-1.02298e-01,-1.86526e-01,-1.39780e-01,1.15810e-01,1.65449e-01,1.33691e-01,1.76329e-02,8.89656e-02,2.36757e-01,1.55631e-01,1.79656e-02,-3.95505e-02,1.79471e-01,-6.77902e-02,-4.81973e-02,9.89832e-03,-3.52269e-03,3.64248e-02,5.91188e-03,5.53998e-02,-8.33742e-02,3.30812e-02,2.44586e-02,-8.75117e-02,-2.53916e-02,-8.53001e-02,-5.60222e-02,-8.08791e-02,-1.98408e-01,-5.98748e-02,9.49306e-02,4.78968e-02,1.10937e-01,1.34242e-01,1.38835e-01,-8.29194e-03,2.00072e-01,1.39524e-01,-3.66303e-02,1.92010e-01,1.19481e-01,2.64173e-02,7.57542e-02,3.36088e-02,-3.32782e-02,9.99024e-02,-6.09849e-03,2.67655e-02,-4.95144e-03,-7.40195e-02,1.02313e-02,-5.64268e-02,-5.07341e-02,-1.26965e-01,-9.59986e-02,-7.70304e-02,8.33051e-02,1.52860e-02,4.36309e-02,1.24962e-01,5.54310e-02,-2.95204e-02,9.58428e-03,-2.91432e-02,8.08207e-02,1.88587e-01,-4.83899e-04,5.49179e-02,1.64689e-01,6.36395e-02,4.43001e-02,2.91246e-02,1.78904e-01,9.39605e-02,-9.76483e-02,1.46854e-02,8.95075e-03,-1.68104e-02,-5.99181e-02,-2.10875e-02,-5.90576e-02,-3.63987e-02,2.19648e-02,-6.77645e-02,3.86867e-02,9.23921e-02,5.78862e-02,1.12176e-01,1.58782e-01,9.30778e-02,-1.62662e-02,-2.82211e-02,7.64664e-02,2.15460e-01,1.11792e-01,6.48918e-02,1.16543e-01,-8.05206e-02,6.46120e-02,-5.49387e-02,7.85360e-02,4.74534e-02,-2.81638e-02,-2.64172e-02,6.02650e-02,-1.09660e-01,6.17091e-02,7.28394e-02,-7.68627e-03,2.72553e-02,3.35511e-02,-5.29953e-02,8.45342e-02,3.32599e-02,1.52335e-01,1.39451e-02,-1.83612e-02,-1.33011e-01,-1.56791e-01,7.21244e-02,2.02828e-01,2.23743e-01,1.22315e-01,1.11295e-01,4.11186e-02,-6.39016e-02,7.86624e-02,-7.54819e-02,2.37471e-02,5.89638e-02,8.70569e-02,3.24134e-02,-8.67692e-02,-4.12499e-02,-7.97167e-03,6.40206e-03,7.13364e-02,7.67753e-02,1.47101e-01,1.56230e-02,1.17247e-01,5.40836e-02,1.77120e-02,-9.95171e-02,3.32975e-02,4.67775e-02,-5.24405e-03,1.01931e-01,5.64742e-02,6.91402e-02,1.64644e-01,-3.41198e-02,-4.55459e-02,1.93338e-02,-4.10474e-02,1.47941e-02,-8.39497e-02,-1.05607e-01,-5.34885e-02,2.75366e-02,4.92243e-02,2.64456e-02,1.30999e-01,7.75440e-02,-2.27851e-02,1.47502e-01,2.07976e-01,6.80328e-02,-7.82686e-02,1.67106e-02,-6.80850e-03,-7.94034e-02,-2.20175e-02,1.65367e-01,1.74070e-01,3.01081e-02,3.48693e-03,-7.45516e-02,1.26933e-01,2.57630e-02,-3.28985e-02,-6.15270e-02,-1.14225e-02,4.16923e-03,-2.89411e-02,5.78238e-02,-1.78255e-01,-2.86837e-02,-1.23506e-01,1.58933e-02,1.12585e-01,3.72491e-02,1.88123e-01,2.02175e-01,1.34666e-01,6.51062e-02,-1.71327e-01,-2.95468e-02,7.41471e-02,1.06281e-01,1.38244e-01,1.31047e-01,2.44501e-01,1.50587e-01,9.59419e-02,6.91481e-02,-5.29775e-02,-5.92441e-02,4.38599e-02,-5.39947e-02,9.17026e-03,6.21353e-02,2.17449e-02,-4.94801e-02,3.28777e-02,-1.66776e-02,6.61076e-02,5.63961e-02,2.35678e-03,-7.90553e-02,1.17540e-01,8.29143e-02,1.31520e-02,-7.78502e-02,9.14480e-03,-1.01466e-01,-8.26822e-02,3.15666e-02,-1.02945e-01,-1.13671e-01,1.30190e-03,-5.61549e-02,-6.28915e-02,-2.05287e-02,-5.21046e-02,6.45392e-02,6.64148e-02,-5.69168e-03,
-1.37606e-02,5.84312e-02,-1.03588e-02,3.79651e-02,2.89840e-02,-5.28275e-02,-7.48399e-02,-9.93674e-03,1.71465e-03,-8.88600e-03,-6.42014e-02,-6.28279e-02,-3.20592e-02,-8.10577e-02,-6.56852e-02,-3.01190e-02,5.37272e-02,7.50363e-02,-6.71429e-02,4.23525e-02,7.07551e-02,1.07868e-02,7.95759e-02,4.11562e-02,-1.47432e-02,-4.33688e-02,-3.28463e-02,-5.14148e-02,4.91087e-02,3.37585e-02,-7.83176e-02,3.70848e-02,-3.29683e-02,-4.17289e-02,-1.26693e-01,-2.56902e-02,-3.28659e-02,6.39571e-02,1.70861e-02,1.52736e-02,-5.09285e-02,-3.27236e-02,-5.26869e-02,9.07461e-03,-3.08939e-02,-5.58126e-02,-8.63486e-02,4.24446e-02,6.26346e-02,-6.04436e-02,6.40999e-02,-3.61486e-02,-2.82920e-03,-7.48166e-02,5.96915e-02,-4.66189e-02,1.17399e-04,6.60608e-03,6.20374e-02,3.92075e-02,-8.13977e-02,4.00440e-02,-2.68185e-02,-8.66597e-02,4.56129e-02,-6.71541e-02,-8.85708e-02,-1.00055e-01,-1.10775e-01,-2.22299e-01,-1.92895e-01,4.62397e-02,1.04192e-01,-1.33831e-02,-5.11233e-02,-1.05065e-01,-9.03494e-02,2.53306e-02,1.07365e-02,6.13645e-02,3.64331e-02,2.14916e-02,3.66467e-02,-7.46102e-02,7.82559e-02,-2.46742e-02,2.61974e-03,-3.58491e-02,8.97893e-02,1.74244e-02,5.28202e-02,3.01362e-02,-6.55871e-02,-1.76899e-02,-4.27241e-02,-1.11424e-01,-2.41708e-02,-7.19086e-02,-8.86675e-02,7.05904e-02,2.14359e-02,1.81111e-02,-2.47773e-02,4.20266e-02,-2.33633e-02,-5.98283e-02,2.71531e-02,-9.71449e-03,-2.24762e-02,4.35411e-02,-5.62938e-02,1.96018e-02,-7.86828e-02,-5.34236e-03,-8.52268e-02,9.58520e-02,1.52307e-01,-2.27167e-02,5.22829e-02,1.99151e-02,6.46296e-02,-8.46235e-02,-1.73966e-02,-6.03965e-02,-1.14419e-01,-8.91329e-02,-9.82068e-02,-2.09397e-01,-1.41400e-01,-3.30453e-05,8.09627e-02,1.22996e-01,3.83278e-02,5.29186e-02,6.73877e-02,-3.85564e-02,4.79874e-02,9.01891e-02,6.39526e-02,-3.21178e-02,5.38233e-02,-7.96501e-02,2.66961e-02,1.06513e-02,2.81455e-02,-1.91996e-02,1.35469e-01,1.25236e-02,-1.23697e-01,-1.36438e-01,1.53834e-02,6.86088e-02,-4.18378e-02,-7.00278e-02,1.61746e-02,9.02155e-02,8.05648e-02,1.30833e-01,1.28257e-02,-8.71262e-02,-5.40146e-02,-9.48876e-02,-1.49003e-02,-9.18613e-02,-5.45318e-02,4.02949e-03,2.74043e-02,2.59328e-03,-5.33225e-02,-8.05202e-02,5.13206e-02,3.49769e-02,-3.20597e-02,-7.95316e-02,9.40868e-02,-7.37033e-02,-2.13956e-02,8.32337e-02,8.23642e-02,1.80242e-01,1.22567e-01,1.75507e-01,2.04604e-01,4.80371e-02,-1.90556e-02,-1.98740e-02,-1.52671e-01,-1.39466e-01,-1.97345e-02,-2.94733e-02,-5.95356e-02,-5.97886e-02,-9.14234e-02,-2.90381e-02,8.17892e-02,-2.17456e-02,-6.70420e-02,4.41609e-02,1.49483e-01,-3.16628e-02,4.52618e-02,-1.30260e-01,-2.50345e-02,-3.35037e-02,7.99115e-02,9.40631e-02,1.74973e-01,1.03861e-01,1.73498e-01,2.14716e-01,2.24495e-01,-1.47917e-02,-1.04094e-01,-1.06887e-01,-1.41456e-01,-1.82111e-01,-2.62222e-01,-3.06945e-01,-2.16279e-01,-1.21382e-01,-7.84323e-02,-1.40458e-01,1.25749e-02,1.14604e-01,6.47678e-02,-6.19346e-02,9.69160e-02,6.76399e-02,-1.69308e-02,-8.59660e-04,-3.18730e-02,4.14959e-02,1.13652e-01,5.28738e-02,7.95245e-02,9.29460e-02,6.88818e-02,8.31519e-02,1.26991e-01,-9.61677e-03,-1.37225e-01,-5.95612e-03,-8.50350e-02,-1.08489e-01,-1.91851e-01,-2.99395e-01,-9.52946e-02,-1.89596e-01,-2.29663e-01,-1.31832e-01,-1.10255e-01,-3.32492e-02,3.40464e-03,6.13277e-02,8.69155e-02,2.09867e-01,6.91234e-02,-1.01710e-02,6.93871e-02,1.53463e-01,6.11560e-02,7.11689e-02,-1.34508e-02,-2.24355e-02,-1.68782e-01,-1.85194e-01,-9.97118e-02,-1.33939e-02,2.83360e-02,1.38948e-01,8.71514e-02,-7.58468e-02,-2.03411e-01,-1.02740e-01,-1.14297e-01,-1.95822e-01,-1.62723e-01,-1.23721e-01,3.28374e-02,2.48928e-02,8.01817e-02,4.27017e-02,1.00148e-01,2.85837e-01,6.65671e-02,3.53860e-02,1.99570e-02,1.61852e-02,3.83658e-02,-2.34385e-02,-3.36259e-02,-2.15650e-01,-2.34803e-01,-1.92315e-01,-1.37559e-01,-3.57037e-02,9.39308e-02,2.77762e-01,-2.51863e-02,-1.27382e-01,-1.55940e-01,-1.31618e-01,-1.21405e-01,-9.11005e-03,-1.10361e-01,-3.42244e-02,2.84487e-04,2.38176e-02,1.82945e-02,5.42386e-02,7.46358e-02,6.11139e-02,-9.69233e-02,2.51996e-02,1.15383e-01,-8.38259e-02,-1.06636e-01,-3.11736e-02,-1.86688e-01,-1.89337e-01,-1.80942e-01,1.56865e-02,-4.33106e-02,-6.59791e-02,1.10495e-01,2.44722e-02,7.61544e-02,-3.13110e-02,-1.34669e-01,-4.16155e-02,-1.54851e-01,2.46361e-02,-1.00997e-01,3.95445e-02,1.50125e-01,-3.06606e-02,2.43629e-03,-1.29870e-02,-5.59707e-02,1.28390e-02,-5.45593e-02,-9.88151e-02,-6.58797e-02,-3.55496e-02,-4.86000e-02,-2.83636e-02,-2.40994e-01,-1.49306e-01,-4.84561e-02,2.60833e-02,7.68310e-02,-8.73241e-02,1.76834e-02,-2.66387e-02,3.27877e-02,-4.99826e-02,8.22708e-03,-1.38345e-01,3.02357e-02,-7.78237e-02,2.16305e-02,7.96156e-02,1.00409e-01,1.02921e-01,-7.16814e-02,-8.43860e-03,-1.22951e-01,-4.51581e-04,-1.82630e-01,-8.88639e-02,-1.07828e-01,-1.27625e-01,-5.82680e-02,-7.49412e-02,-1.05886e-01,-5.98641e-02,-1.43964e-01,2.72403e-02,2.96281e-02,3.48866e-02,-7.11122e-02,-8.99008e-02,-1.30817e-02,-1.67490e-01,-8.80207e-03,-1.11256e-01,1.33291e-02,3.15676e-02,-1.51435e-02,-2.92377e-02,7.36647e-02,-8.51722e-03,-4.80109e-02,1.97060e-02,-4.94689e-02,-1.35694e-01,-1.20254e-01,-1.34317e-01,-1.19662e-01,1.03258e-02,-8.16731e-03,2.36221e-02,2.20055e-02,2.84427e-02,2.49387e-02,7.75349e-02,-2.35092e-02,-8.03405e-02,-2.85064e-02,-2.54752e-02,-3.25493e-02,-1.94681e-01,-9.42144e-02,-4.87704e-02,-1.91759e-02,7.40621e-02,5.74146e-02,-3.83283e-02,-5.72877e-03,-8.51428e-02,2.13964e-02,6.77168e-02,5.88631e-02,-1.01630e-02,-4.92350e-02,-2.35254e-02,-9.51647e-02,-5.97702e-02,-1.28288e-01,-6.30703e-02,9.09292e-02,1.23003e-01,8.93341e-03,-5.80156e-02,-1.32963e-01,2.66756e-03,-4.87476e-02,4.42405e-02,2.65714e-02,-4.83277e-02,-7.59006e-02,3.38437e-02,1.24749e-03,-6.30492e-02,-1.03821e-01,-9.81685e-02,-3.47466e-02,-4.74003e-02,5.38605e-02,5.31159e-02,5.73356e-02,6.97122e-03,5.08087e-02,-6.14127e-02,4.82224e-03,-3.69968e-02,-9.03004e-02,-5.63349e-02,1.65898e-01,1.30220e-01,1.38583e-01,1.23086e-01,5.85405e-02,1.61808e-02,3.70527e-02,-1.66001e-02,4.50400e-02,-6.38897e-02,-1.47388e-01,-5.55305e-02,-9.11337e-02,6.18107e-02,9.15803e-03,-1.05150e-01,3.86079e-02,-5.11424e-02,5.31218e-02,1.21489e-01,1.02831e-01,4.16897e-02,8.93981e-03,-1.03933e-01,-5.09590e-02,-6.37085e-02,-7.50572e-02,-2.03265e-01,-1.02412e-01,1.57512e-01,2.20742e-01,2.15418e-01,5.78434e-02,-9.23388e-03,1.05383e-01,9.73849e-02,9.07387e-02,-4.76945e-02,-1.07900e-01,-1.36092e-01,-6.75198e-02,-7.19939e-02,-5.40640e-02,6.41233e-02,-7.37094e-02,-3.54539e-02,-6.13144e-02,-1.69809e-02,1.18426e-01,1.01028e-02,1.18335e-01,-8.84633e-02,-8.57600e-02,-4.69416e-02,-1.20405e-01,-2.42630e-01,-2.51960e-01,-2.27831e-02,2.47197e-02,-4.37986e-02,-2.16713e-01,-6.61531e-02,-8.21267e-03,3.81303e-02,2.54700e-02,6.83490e-02,-7.45656e-02,-7.14242e-03,-1.72107e-01,-2.53932e-01,-1.16648e-01,9.36022e-02,6.35763e-02,-6.91668e-02,-2.54241e-02,3.51007e-02,7.92406e-02,2.19417e-02,9.79105e-02,-1.16586e-01,-1.52268e-01,-1.70057e-01,-1.01282e-01,-2.17511e-01,-3.41004e-01,-4.51403e-01,-3.41387e-01,-3.71815e-01,-3.12397e-01,-1.16267e-01,1.29801e-01,1.08293e-01,5.62169e-02,4.30453e-02,-4.45263e-03,4.00546e-02,-9.75838e-02,-1.91069e-01,-1.59954e-01,-1.94770e-02,-6.85882e-02,8.02208e-03,4.11661e-02,7.03174e-02,4.59618e-02,3.95381e-02,1.80930e-01,7.46902e-02,-1.12855e-01,-5.45171e-02,-2.83060e-01,-1.93451e-01,-2.33070e-01,-5.08883e-01,-5.00896e-01,-4.30558e-01,-1.06562e-01,-6.98572e-02,-2.71437e-02,4.98167e-02,2.48119e-02,4.91681e-02,-3.38671e-02,-5.71560e-02,-2.70182e-02,-1.07270e-01,-2.44645e-01,-1.16300e-01,-4.27493e-02,5.56340e-02,-4.54320e-02,7.12913e-02,2.92800e-01,8.84638e-02,2.07633e-01,4.56412e-02,1.17323e-01,-8.48506e-03,-1.04263e-01,-1.98429e-01,-1.74319e-01,-2.01764e-01,-1.01022e-01,-1.61027e-01,-5.55349e-02,9.08465e-02,6.95767e-02,-1.48460e-02,1.07748e-01,-9.52000e-02,1.22331e-02,-5.08158e-02,-8.70901e-02,-1.47202e-01,-1.39214e-01,-1.07248e-01,-6.90667e-02,-3.92162e-02,3.72824e-02,-2.96581e-02,1.48547e-01,1.57379e-01,7.29145e-02,2.79823e-02,1.34636e-01,8.66475e-02,-6.34076e-02,-1.25348e-01,-6.55763e-02,-8.07011e-03,-4.80215e-02,-4.92554e-02,-3.76699e-03,5.68230e-02,-3.19438e-02,-4.14986e-02,-7.50106e-02,-1.74215e-01,-3.82053e-02,-4.87640e-02,-3.80448e-02,2.81159e-04,2.30081e-03,1.02704e-01,-3.60476e-02,-9.09077e-03,6.66043e-02,1.07565e-03,1.36618e-01,1.10479e-01,2.15577e-01,1.04430e-01,4.52262e-02,8.72039e-02,1.56306e-01,3.15207e-02,-3.67533e-02,1.00208e-01,6.51104e-02,9.63101e-02,6.22135e-02,4.58636e-02,-4.85886e-02,-1.22211e-01,-1.07668e-01,-1.08204e-01,-5.18376e-02,1.81322e-02,7.61857e-02,3.97201e-02,-5.86349e-02,9.03809e-02,-1.08338e-01,1.09748e-02,8.37627e-03,1.02222e-02,6.93676e-02,8.78327e-02,1.69405e-01,1.36186e-01,9.43693e-02,1.89225e-01,6.28759e-02,2.52586e-01,2.01329e-01,7.85506e-02,9.45722e-03,3.12643e-02,1.24373e-01,-1.49064e-02,-8.06137e-03,4.16898e-02,3.53811e-02,-7.26445e-02,-3.95723e-02,1.40500e-01,2.25176e-01,1.66745e-01,-1.12725e-01,8.00589e-04,1.91840e-03,-7.99070e-02,-1.55173e-02,6.38422e-02,1.14462e-01,-2.28714e-02,1.49632e-01,6.34702e-02,7.83925e-02,2.46397e-01,2.36904e-01,2.55992e-01,1.88962e-01,7.42952e-02,2.10460e-01,3.77637e-02,1.35913e-01,-2.84806e-02,-7.00632e-03,4.23103e-02,2.30152e-02,7.61587e-02,2.01765e-02,1.54247e-01,1.74244e-01,1.31716e-01,-4.17456e-02,1.09269e-02,-8.60358e-02,6.65111e-02,3.53048e-02,-7.93282e-02,-3.00992e-02,4.13105e-02,6.14593e-02,1.45871e-02,7.84048e-02,-8.10755e-04,6.06078e-02,1.17942e-01,2.07630e-01,5.78218e-02,1.16999e-01,2.30541e-01,2.62353e-01,1.04336e-01,2.65806e-01,3.50453e-01,3.43185e-01,1.92814e-01,2.29944e-01,1.49571e-01,1.09280e-01,7.20454e-02,4.76111e-02,1.81944e-02,-4.42300e-02,3.38677e-03,-7.79555e-02,7.95308e-02,6.49274e-03,6.23595e-02,5.04243e-02,-7.89554e-02,5.56637e-03,6.43168e-02,9.14238e-03,-1.37029e-02,-1.88766e-01,-1.30964e-01,-7.15868e-02,-1.62235e-01,-9.87291e-02,3.33595e-03,9.30226e-02,8.25811e-02,9.37414e-02,5.69835e-02,3.32842e-02,3.76159e-02,1.19580e-01,9.72922e-03,-3.71025e-02,-1.30923e-02,-4.60772e-02,1.53064e-02,
-1.74551e-02,3.68624e-02,-3.82812e-02,-1.48627e-02,2.56116e-03,8.23462e-02,-2.09453e-02,4.37096e-04,1.60808e-02,6.06556e-02,2.21167e-02,1.83194e-02,-1.39962e-02,1.56123e-02,8.84118e-02,6.88905e-02,2.50563e-02,7.18366e-03,-3.62572e-02,-5.57782e-02,-5.72462e-02,3.91795e-02,7.30808e-02,7.95840e-02,-7.91854e-02,-6.03362e-02,-4.76107e-02,-7.04192e-02,2.43056e-02,7.38373e-02,2.79737e-02,-2.73732e-02,-5.60978e-02,5.34628e-02,-8.69215e-03,-4.81355e-03,2.40471e-02,-1.07427e-02,-7.92583e-02,-6.64484e-02,-1.71038e-02,-4.24957e-02,8.84430e-03,1.36808e-01,1.20029e-01,2.03944e-02,-7.41223e-02,-6.76496e-03,-2.19944e-02,-1.37010e-02,-2.07886e-02,4.11973e-02,-5.28152e-03,-5.53081e-02,-4.31322e-02,1.80800e-02,4.53108e-02,-3.63356e-02,-7.27476e-02,8.08303e-02,6.17790e-03,4.02221e-02,-9.64139e-02,-8.42789e-02,-7.29772e-02,-1.58492e-01,-3.68433e-02,-2.12641e-02,-5.77809e-02,-1.39230e-01,5.41382e-02,-7.27329e-02,-9.43577e-03,4.75083e-03,-2.38321e-02,-1.11504e-01,-7.54359e-02,-4.27386e-02,-1.22491e-01,-8.85686e-02,4.67372e-02,-2.81346e-02,1.76968e-03,-2.07132e-02,1.85348e-02,-6.66482e-02,1.17866e-01,1.74416e-02,1.99875e-02,-3.27082e-02,-3.00590e-02,-4.85750e-02,-1.12605e-01,-1.39329e-01,-7.95046e-02,-6.07763e-02,-1.39678e-02,-6.20828e-02,3.76070e-02,-5.67992e-02,-4.16524e-02,1.27990e-02,1.24550e-01,6.38608e-02,-5.16703e-02,-1.18930e-01,-1.73559e-01,-1.82751e-01,-1.25733e-01,-5.46029e-02,-8.92767e-02,-8.11790e-02,1.49781e-03,1.64719e-02,1.77404e-02,1.41578e-01,1.60085e-02,4.06059e-02,-1.22641e-02,-6.16810e-02,-1.33060e-01,-9.42792e-02,-1.04392e-01,1.74284e-02,-7.43205e-02,-2.74272e-02,6.78713e-02,-6.39052e-02,4.32856e-02,-1.04694e-01,-1.47736e-03,-8.00589e-03,-1.37396e-01,-1.32910e-02,-3.11232e-02,-1.60434e-01,-9.71192e-03,6.99023e-03,-5.25115e-02,-9.00539e-02,-3.30113e-02,5.43086e-03,1.42547e-01,-4.40241e-02,1.31559e-01,2.34373e-01,1.46703e-01,4.72396e-02,1.32751e-01,5.38404e-02,-8.97406e-02,5.76343e-02,3.00211e-02,2.05975e-02,4.45298e-02,1.94210e-02,-8.86520e-02,1.01127e-01,-7.74126e-03,-5.10783e-02,-1.84859e-01,-8.32373e-02,1.04615e-01,-3.45656e-02,-5.10562e-03,-1.60458e-01,-2.77915e-01,-1.58603e-01,-6.55235e-02,1.11873e-01,1.41122e-01,8.63102e-02,1.22033e-01,9.40517e-02,9.96319e-02,4.43644e-02,-1.30852e-02,7.86081e-04,7.36514e-02,1.07077e-01,1.10498e-01,-4.64400e-02,-5.32880e-02,-1.18763e-01,2.21647e-02,-7.20546e-02,-7.84933e-02,-1.36843e-01,-1.28660e-01,-1.85167e-02,8.99903e-02,2.10170e-01,6.84653e-02,-1.60659e-01,-2.93474e-02,-6.73323e-02,7.97204e-02,1.40405e-01,1.13786e-01,1.15208e-01,4.01395e-02,2.87721e-02,2.68612e-02,1.67998e-01,7.39794e-02,1.91262e-02,-3.67581e-02,1.52923e-02,1.49198e-02,1.31500e-02,-7.95784e-02,-1.26990e-02,5.53635e-02,-5.36708e-02,-3.78313e-02,2.83874e-03,-1.70921e-02,-4.84990e-02,1.16915e-01,2.49970e-01,-1.27897e-02,-1.35952e-01,-8.19942e-02,-1.41482e-01,-1.20413e-04,4.23899e-02,1.06326e-01,-2.80525e-02,5.53438e-02,1.75227e-02,1.03395e-01,4.02832e-02,8.22202e-02,1.25667e-01,6.89498e-02,9.53376e-02,-1.25443e-01,-1.34116e-01,2.46720e-03,6.37611e-02,-2.92405e-02,1.11266e-02,6.61741e-02,-7.19819e-03,-7.64091e-02,-1.64464e-02,1.52667e-01,7.95081e-02,-1.85628e-02,-7.86440e-02,1.88911e-01,1.63477e-01,-1.81258e-02,1.22831e-01,-2.43891e-02,-1.05465e-01,8.75808e-03,8.55467e-02,2.10815e-01,8.37957e-02,9.02507e-02,2.19001e-02,9.54833e-02,2.08005e-02,-6.05022e-02,-4.21130e-02,3.77132e-02,9.56186e-02,8.40228e-02,1.36843e-01,8.18408e-02,1.81162e-01,1.36204e-01,3.86129e-02,8.44963e-02,2.01826e-02,-4.14379e-02,1.55175e-01,8.92370e-02,9.59266e-02,3.05991e-02,1.98546e-01,6.31572e-02,7.54104e-02,1.16858e-02,3.45820e-02,1.35511e-01,1.49143e-01,-3.68325e-02,-8.13384e-02,-2.99239e-02,-7.22288e-02,-1.57613e-01,1.35290e-01,8.47415e-02,1.84315e-01,1.34108e-01,7.10119e-02,1.82194e-01,9.47053e-02,5.80181e-02,1.16720e-01,1.06183e-01,6.14446e-02,-1.11419e-01,1.73971e-01,8.30753e-02,1.39971e-01,1.07079e-01,1.92254e-01,8.61056e-02,1.34258e-01,1.17931e-01,1.65807e-02,-2.11176e-02,8.73817e-02,4.29685e-02,-9.55253e-02,-1.61173e-01,-1.57459e-01,4.23391e-02,5.87823e-02,1.77463e-01,1.35860e-01,1.43495e-01,1.34071e-01,1.51945e-01,-2.12962e-02,-3.39295e-03,-9.91798e-03,1.47120e-01,3.57664e-03,-3.09233e-01,2.26236e-02,9.78302e-03,-4.62718e-03,8.43312e-02,1.64455e-01,-9.25439e-03,1.01049e-01,3.42987e-02,-2.03182e-02,-1.37826e-01,-1.52398e-01,-1.94556e-02,-3.66803e-02,7.07031e-02,7.86947e-04,8.82921e-03,-1.27419e-02,7.41574e-02,6.96919e-02,1.14119e-01,5.18812e-02,-2.28215e-02,-5.83154e-02,-8.58648e-02,-8.41933e-02,8.48675e-03,-1.17383e-01,-1.82970e-01,2.63279e-02,5.95065e-02,7.05447e-02,-5.63922e-02,1.40378e-01,1.26949e-01,4.25997e-02,1.03015e-01,-7.78282e-02,-2.16694e-01,-7.90528e-02,-1.83451e-01,-1.79803e-02,1.48148e-01,1.23843e-01,1.93255e-01,6.28278e-02,1.45602e-01,8.92316e-02,2.73583e-03,6.07467e-02,7.30328e-02,-6.24473e-02,-8.98048e-03,-4.68926e-02,-7.31799e-02,-1.66948e-01,-1.77336e-01,-6.64965e-02,-1.74646e-01,2.40058e-02,-5.88676e-02,1.95993e-01,1.00558e-01,1.83818e-01,8.62863e-02,-1.81615e-01,-2.48175e-01,-1.89552e-01,-1.37849e-01,-1.01126e-01,3.99759e-02,8.01218e-02,2.69604e-01,1.82919e-01,3.95197e-02,1.56030e-01,-1.89791e-02,-1.05440e-02,1.47246e-03,-5.09158e-03,4.51402e-02,-7.26265e-02,-2.24066e-03,-8.69723e-02,-1.51840e-01,8.32203e-02,-2.07009e-01,-1.23087e-02,6.72060e-02,7.02829e-02,1.66967e-01,9.38246e-02,-4.87919e-02,-1.92054e-01,-2.01131e-01,-1.86593e-01,-1.32960e-01,-8.55871e-02,-1.75967e-02,9.23740e-02,2.20112e-01,1.73224e-01,1.39901e-01,6.10023e-02,4.22757e-02,7.79930e-02,7.67445e-02,6.92094e-03,4.57455e-02,3.93361e-02,8.65469e-02,-3.31009e-02,-1.52849e-01,-2.21630e-01,1.91814e-02,6.48732e-02,7.33891e-03,1.22936e-01,1.06380e-01,4.55231e-02,8.03712e-03,-3.22564e-03,-2.03885e-02,-6.54887e-02,1.52468e-02,2.35181e-02,-2.13874e-02,-3.92037e-02,2.05042e-02,3.93623e-02,9.55115e-02,5.04703e-03,8.69198e-02,1.53444e-01,3.67887e-02,-3.07375e-02,2.87679e-02,-5.36035e-03,7.52742e-03,-7.05239e-02,-1.75214e-01,-8.91038e-02,-7.60546e-02,7.49349e-02,5.30075e-02,9.88684e-02,2.04863e-01,-6.43507e-02,-1.11376e-03,1.28797e-01,-8.94453e-03,-1.44534e-01,-8.84846e-02,-1.04024e-01,-1.62849e-01,-1.58031e-01,-8.39693e-02,3.83748e-02,-9.72576e-02,-7.53262e-02,2.97755e-02,2.30187e-02,-1.14269e-01,-1.16634e-02,4.66608e-02,3.22708e-02,8.80741e-03,8.12745e-02,1.75209e-01,8.03659e-02,2.02615e-02,6.13207e-02,6.85133e-02,2.54151e-02,2.58729e-01,-6.23763e-02,3.49950e-02,6.99075e-02,-2.35535e-02,-1.51393e-01,-1.95617e-01,-8.23605e-02,-2.12029e-01,-1.27878e-01,-1.66369e-02,5.95902e-02,-1.58439e-01,-6.58880e-02,-8.83388e-02,-6.59734e-03,-8.36764e-02,-1.69311e-01,-5.25741e-02,-6.66487e-02,-2.46552e-02,-1.12857e-01,-2.39142e-02,1.25831e-01,1.14506e-01,1.70120e-01,-6.27776e-02,1.14395e-01,3.48513e-02,1.88161e-01,1.26326e-01,1.41684e-01,1.50969e-01,2.27404e-02,-5.31471e-02,-2.42816e-02,-7.85989e-02,-1.01105e-01,-6.63935e-02,6.40495e-02,-1.87163e-01,-1.22734e-01,-6.43722e-02,-1.59218e-01,-1.32099e-01,-4.31650e-02,-9.51332e-02,-4.55808e-02,-1.24846e-01,-1.60767e-01,1.17301e-01,1.52843e-01,3.49510e-03,9.87997e-02,6.17467e-02,2.17419e-02,-1.62769e-02,1.51004e-01,1.34552e-01,1.53136e-01,1.71945e-02,3.01161e-02,6.37276e-02,1.35977e-02,-9.77036e-02,4.77356e-02,4.26495e-02,-5.96158e-02,-3.50621e-02,-1.37807e-01,-9.13529e-02,-8.00816e-02,-8.82390e-02,2.22296e-02,-5.65500e-02,-2.92057e-02,-2.14169e-02,2.30208e-02,-7.81006e-03,9.47490e-02,8.76126e-02,4.22520e-02,4.14034e-04,8.16460e-02,1.72584e-02,1.44268e-02,1.42581e-01,9.41928e-02,8.99744e-02,1.04554e-01,5.65639e-02,1.05802e-01,5.38685e-02,-4.49285e-02,-4.73804e-02,-5.64946e-03,-8.35223e-02,-9.57696e-02,-1.18374e-02,-1.33259e-01,-8.75524e-02,2.50077e-02,-1.00378e-01,-1.13804e-01,3.72593e-02,-8.32002e-02,6.91550e-02,-1.69699e-02,2.99560e-02,-2.01980e-02,3.68901e-02,-5.11165e-02,5.15946e-02,7.97829e-03,4.72597e-02,6.84016e-02,1.66972e-01,5.36057e-02,-3.56525e-03,6.44691e-02,8.72672e-02,2.88588e-02,-8.04713e-03,-8.83142e-02,-1.08952e-01,-1.14678e-01,-9.23287e-02,-1.51126e-01,-1.86612e-01,6.68888e-02,-3.70649e-02,2.57651e-02,9.46900e-02,-3.60716e-02,-8.41461e-02,4.93851e-02,1.12939e-01,-7.75693e-02,7.78031e-02,3.18974e-03,1.42934e-01,2.32652e-01,4.87871e-02,7.81183e-02,-9.88874e-02,3.31035e-02,7.05153e-02,4.25463e-02,8.24534e-02,7.96315e-02,8.42700e-02,-7.10235e-02,-1.36209e-01,-1.66619e-01,-1.05460e-01,-1.14192e-01,-2.04328e-02,1.16262e-02,-8.66003e-02,-8.63139e-02,-4.67569e-02,-3.18309e-02,3.84049e-02,5.91899e-02,1.23178e-01,3.08054e-02,-5.33782e-03,-7.18252e-02,3.27999e-02,9.55575e-02,6.52389e-02,1.12137e-01,-1.04244e-01,-1.38780e-01,-1.22855e-01,5.06799e-02,1.49511e-01,4.40997e-02,-8.29507e-02,-1.09486e-01,-1.00378e-01,-2.36584e-01,-2.34119e-02,-2.19030e-02,-1.33717e-01,1.14174e-03,6.65405e-02,8.99412e-03,8.80127e-02,-1.70593e-02,-3.44393e-03,5.18639e-02,1.65822e-02,2.80476e-03,-7.27381e-02,-4.59120e-02,-2.44673e-02,-2.48813e-02,4.18875e-02,-5.66735e-02,-4.84891e-02,-9.00089e-02,-4.55232e-02,-9.48464e-03,5.70941e-04,1.20149e-01,6.09076e-03,-1.76492e-01,-2.48714e-01,-2.26783e-01,-8.64270e-02,-1.47271e-01,-1.81855e-01,7.65307e-02,1.39715e-02,1.18291e-01,1.23227e-01,1.11145e-01,-1.63964e-03,-2.47104e-02,-8.00761e-02,6.21225e-02,-1.11383e-02,6.93153e-02,6.89484e-02,-2.36980e-02,-9.44562e-02,-1.91798e-01,-1.36089e-01,-1.89041e-01,-2.01169e-01,-2.39839e-02,-5.87607e-02,-1.32946e-01,-1.11234e-01,1.58250e-02,-5.58263e-02,-1.84544e-01,-4.85636e-03,-2.71718e-02,-3.97023e-02,7.69832e-02,2.58131e-02,1.74177e-02,-5.10463e-02,4.80632e-02,7.51700e-03,-6.41137e-02,-7.08438e-02,2.65794e-02,6.45301e-02,1.46488e-02,6.83409e-02,-3.63785e-02,-3.09760e-02,9.29192e-02,2.57557e-02,-6.08596e-02,1.03995e-01,-5.62736e-02,2.17562e-02,3.53148e-03,-3.76339e-02,6.58405e-02,3.05032e-02,-4.64543e-03,-4.31255e-03,1.06326e-01,2.44121e-02,-1.59963e-02,1.76776e-03,2.73046e-02,-3.51170e-02,7.77666e-02,7.14775e-02,5.56408e-02,1.25952e-02,-1.49341e-02,
2.69417e-02,1.84269e-03,1.38416e-03,-4.54524e-03,-4.83643e-02,6.21947e-02,-4.21244e-03,-1.36495e-02,-1.05210e-02,-2.61796e-02,-2.66301e-02,7.13326e-02,-2.28763e-02,-6.67708e-02,-1.31564e-02,-7.47648e-02,2.62569e-02,-6.22692e-02,4.58841e-02,-1.59776e-02,-2.52183e-02,5.57617e-02,-7.30812e-02,-1.62042e-02,1.64748e-02,-8.02394e-02,6.80350e-03,1.18427e-02,3.82792e-02,-2.42552e-02,4.65969e-02,-1.39003e-02,5.23027e-02,9.40933e-02,-1.73809e-02,1.44415e-02,-1.32066e-02,-6.64845e-02,-5.69623e-02,-2.26956e-02,8.78988e-02,-4.97811e-02,-1.34248e-01,3.63766e-02,4.76954e-02,8.11866e-02,7.49668e-02,1.43226e-01,1.83038e-01,4.69895e-02,2.25432e-02,-1.44617e-02,-1.33294e-03,-4.34745e-02,4.80217e-02,-1.66869e-02,-1.56154e-02,1.69771e-02,-2.89778e-02,1.86232e-03,1.57195e-02,5.95699e-02,1.87319e-02,1.11634e-01,8.88860e-02,3.05374e-01,2.10099e-01,2.98002e-01,1.28890e-01,1.38158e-01,2.38232e-01,1.11876e-01,3.64821e-02,6.08131e-02,1.75549e-01,8.50962e-02,1.62380e-01,1.59363e-01,1.66561e-01,6.27179e-02,7.92290e-02,9.66378e-03,-2.13936e-02,-4.90902e-02,-8.05221e-02,2.79646e-02,4.69390e-03,3.40888e-02,-9.28103e-02,5.77393e-02,1.41147e-01,1.86334e-01,2.80278e-01,3.07893e-01,1.63328e-01,2.04180e-01,9.41110e-02,6.54043e-02,2.49416e-01,1.80196e-02,1.47121e-01,9.05235e-02,6.91932e-02,-3.80823e-02,-1.66061e-01,-1.97398e-02,-1.00213e-02,2.27091e-01,1.11680e-01,1.06180e-01,1.14321e-01,-4.26575e-02,9.42292e-03,-4.01407e-02,-5.87655e-02,-1.25459e-01,6.62677e-02,2.34067e-02,1.00232e-01,1.44993e-01,2.68455e-01,1.54699e-01,2.53713e-01,1.91231e-01,3.08253e-02,1.35573e-01,1.50506e-01,9.39008e-02,8.64729e-02,3.27315e-02,2.44321e-02,1.79766e-02,-1.28351e-01,-1.49231e-01,-1.07723e-01,-1.94934e-02,9.79677e-03,2.40037e-02,-4.14064e-02,1.80794e-01,-8.74203e-03,7.92010e-03,7.50897e-03,-4.30062e-02,1.50848e-01,-1.54072e-02,7.06235e-02,-2.35178e-03,2.38976e-02,2.53610e-02,3.23908e-02,2.47380e-02,-7.78569e-02,-9.97129e-02,3.83255e-02,-3.93546e-02,-2.09359e-03,5.28126e-02,-4.74236e-02,9.56940e-03,-1.31859e-02,-4.25166e-02,-5.49414e-02,1.66332e-02,-3.11681e-02,8.55517e-03,4.10944e-02,6.99624e-02,7.60150e-02,6.81429e-02,2.18170e-01,7.08087e-02,1.44257e-01,3.30129e-02,9.65219e-02,-3.11385e-02,-1.42683e-01,-1.87991e-01,-1.76484e-01,-1.11065e-01,-1.65847e-01,-8.03380e-02,-7.42251e-03,-3.80130e-02,-1.72171e-02,-1.39215e-01,2.54038e-02,-2.40078e-02,-9.72045e-02,-6.18050e-02,-1.23371e-01,-1.99548e-01,-9.11832e-02,6.47532e-02,3.23265e-02,5.22480e-02,-7.24195e-02,1.13293e-01,1.18448e-01,1.38972e-01,1.47917e-01,-9.84288e-03,6.90909e-02,5.92146e-02,-3.89870e-02,-6.44646e-02,-1.46255e-01,-9.27062e-02,-6.87277e-02,-1.48225e-01,-1.97410e-02,-2.02574e-03,-3.57720e-02,1.33087e-02,-6.20570e-02,-4.85511e-02,-1.44374e-01,-1.36964e-01,-2.22842e-01,-2.29176e-01,-5.97362e-02,5.75242e-02,-5.09120e-02,1.07818e-01,1.61247e-01,5.56586e-02,1.92242e-01,1.07535e-01,9.04142e-02,-1.92013e-02,-1.85323e-02,-1.50811e-01,-1.22529e-01,-1.89253e-03,-1.71128e-01,-6.73900e-02,-1.62306e-01,-8.36873e-02,-3.33331e-02,-1.04823e-02,5.08725e-02,7.08575e-02,-5.98790e-02,-4.04331e-02,-1.29442e-02,-1.58502e-01,-4.59050e-02,-1.38745e-01,-1.62802e-01,-6.96430e-02,-9.25281e-02,-3.54659e-02,-6.36444e-02,-4.67870e-02,1.45373e-01,4.77513e-03,2.66705e-02,6.37816e-02,-1.10336e-01,-1.11004e-01,-2.17204e-01,-1.23898e-01,-1.56708e-01,-5.62020e-02,-1.69388e-02,-9.07511e-02,-5.89186e-02,1.14109e-02,7.04703e-02,1.17286e-02,-7.11167e-02,5.75378e-04,-2.43166e-03,-2.23400e-01,-6.36956e-02,-1.35842e-02,-8.41644e-02,-1.76649e-01,-1.70282e-01,-1.65572e-02,3.78662e-02,-3.28061e-02,1.33995e-02,-4.29724e-02,-5.65307e-02,1.02196e-01,-1.67310e-01,-1.12429e-01,-1.68883e-01,-2.08104e-01,-1.16641e-01,-8.82291e-03,-1.19212e-01,-1.87004e-01,-1.20863e-01,-7.60688e-02,5.52399e-02,9.05463e-02,3.00150e-03,-1.19761e-01,-5.84880e-02,-1.21114e-01,-1.31350e-01,5.10776e-02,-5.59443e-02,-1.49039e-01,-1.34664e-01,-6.24870e-02,-4.15004e-03,7.13005e-02,6.67559e-02,1.04092e-01,-6.70377e-02,-3.45983e-02,-5.50176e-02,-8.08156e-02,-2.66857e-02,-6.99252e-02,-2.88157e-02,-3.90741e-02,-1.86763e-01,-1.09518e-01,1.04789e-01,1.54969e-02,-4.57560e-02,7.18562e-03,1.65029e-02,-1.89148e-03,-1.06324e-01,-1.41715e-01,-9.60405e-02,-2.43524e-02,9.97415e-02,-3.24050e-02,-1.52248e-01,-2.79314e-02,3.53187e-04,-1.34121e-01,-1.06125e-02,-1.43777e-01,-1.66538e-01,-4.58158e-02,6.17846e-03,6.09679e-02,6.82185e-02,8.32412e-02,-4.10248e-02,3.96854e-02,-8.32623e-03,4.89349e-02,9.63481e-02,1.20447e-02,7.89117e-03,-6.72905e-03,-2.81516e-02,-5.14740e-02,-1.58454e-02,5.88560e-02,8.31883e-02,2.46673e-02,1.14398e-01,-8.84447e-02,-3.14707e-02,-3.03626e-02,2.39930e-02,5.36928e-02,-3.90718e-02,1.60100e-02,-6.71944e-02,2.57676e-02,7.21570e-02,3.13853e-02,8.58256e-02,1.03727e-01,5.12879e-02,6.89273e-02,8.79364e-02,9.08911e-02,-4.65321e-03,-2.88137e-03,5.44390e-02,-1.11508e-02,-6.20909e-02,5.01258e-02,6.14910e-02,4.95610e-02,8.90916e-02,1.71626e-01,6.37582e-02,1.83250e-02,2.01876e-01,1.23032e-01,-8.11151e-03,5.36089e-02,1.23116e-02,1.28423e-03,-9.50874e-02,1.02454e-01,1.04809e-01,2.41944e-01,2.10433e-01,3.12360e-02,-9.16302e-02,-2.72386e-03,3.67823e-02,1.16088e-01,9.32568e-02,1.40932e-03,4.01092e-02,-1.72028e-02,1.11404e-01,-2.70262e-02,-4.75653e-02,7.34769e-02,1.19539e-01,1.27972e-01,7.91920e-02,1.18037e-01,1.56046e-01,9.52630e-02,-5.48250e-02,4.54617e-03,8.18821e-02,8.79570e-02,-9.01706e-02,5.23941e-02,1.82555e-02,1.44786e-01,-1.34031e-02,5.41032e-02,-3.55894e-02,9.28347e-02,6.53768e-02,4.57533e-02,1.04343e-01,-6.23615e-04,1.58737e-01,8.34535e-02,2.05146e-02,7.21017e-02,7.16910e-02,5.77405e-02,1.30963e-01,-4.01150e-02,4.28855e-03,2.63542e-01,1.22413e-01,9.61572e-02,3.40481e-03,5.84055e-02,1.05446e-01,1.01919e-01,-1.59899e-02,-9.16952e-02,-2.16892e-02,4.03546e-02,-6.78258e-02,-1.63352e-02,5.75011e-02,7.45435e-02,-3.10767e-02,1.19744e-01,-2.62625e-02,5.69846e-02,-3.17017e-02,7.77673e-03,2.45416e-02,9.22614e-02,-5.87922e-03,2.15142e-01,5.37180e-02,6.79667e-02,4.28326e-02,2.68112e-01,3.23335e-01,1.98906e-01,-1.33047e-02,5.62412e-02,1.26314e-01,-2.15818e-02,5.15094e-02,-7.82398e-02,3.85979e-02,4.56322e-02,-1.16741e-02,-6.39034e-03,-7.52661e-02,1.43569e-02,5.88426e-04,4.86948e-02,-3.18781e-02,-1.91791e-02,1.23233e-01,6.87444e-02,9.17806e-02,7.91695e-02,7.35570e-03,1.11864e-01,2.94372e-02,-1.22033e-01,-5.99843e-02,1.92066e-01,9.66028e-02,2.22661e-02,-1.12774e-01,-6.38131e-03,3.28403e-02,-1.20354e-02,2.81292e-02,9.77022e-04,-5.32242e-02,3.96379e-02,4.84562e-02,1.70623e-03,7.40294e-02,2.31245e-02,9.88804e-02,4.37457e-02,1.08093e-02,1.34770e-01,8.94064e-02,1.65131e-01,2.23872e-01,-4.76229e-02,-6.39594e-02,-1.10653e-02,-5.43132e-02,-4.30801e-02,3.46935e-02,1.06842e-01,-9.05749e-02,8.60106e-02,-2.99117e-03,-1.34147e-01,-1.12157e-01,-6.00668e-02,-1.30351e-01,-4.21249e-02,-1.37674e-01,-5.11327e-02,-7.07778e-02,9.69288e-02,-6.86067e-02,-6.67052e-03,-6.10461e-02,5.31515e-03,4.96478e-02,1.76909e-01,1.81380e-01,1.66753e-01,9.64375e-02,-1.30256e-01,-1.35442e-01,-8.58371e-02,3.96729e-02,6.53511e-02,-8.93667e-02,8.03383e-02,7.15434e-02,1.75097e-01,3.08177e-02,-1.18840e-01,-4.26128e-02,4.13565e-02,-1.63474e-01,-1.19247e-01,-1.54482e-01,2.69803e-02,3.34910e-02,1.52591e-01,5.04354e-02,2.48447e-02,1.09221e-02,5.43500e-02,1.41892e-01,7.78242e-02,6.54492e-02,1.34726e-02,6.83974e-02,-6.40379e-02,-3.86833e-02,-5.86775e-02,-1.17356e-01,1.64546e-02,-8.94481e-02,-1.43972e-01,1.38571e-01,-1.22834e-02,4.01080e-02,5.73404e-04,-8.03276e-02,1.13277e-01,-7.00240e-02,-1.86374e-01,-9.86396e-02,-5.70402e-02,4.45801e-02,7.29718e-02,1.48800e-01,-2.96761e-02,2.70804e-02,-3.84044e-02,1.57784e-02,-6.19169e-02,-6.13802e-02,-8.86792e-02,-6.46641e-02,4.93047e-02,-1.93505e-02,-1.41691e-02,7.85604e-02,-1.12074e-01,-2.65391e-01,-8.76746e-02,1.42413e-01,4.22592e-02,6.97215e-02,-3.99083e-02,-1.03016e-02,2.21181e-04,-9.94003e-02,-1.80496e-01,-8.92232e-02,-1.85665e-01,-5.45081e-02,1.07588e-01,1.55551e-01,4.72261e-02,-8.69462e-02,-3.12495e-02,-1.46269e-01,-5.52124e-03,-1.61473e-01,-1.04657e-01,-1.11526e-01,2.60169e-02,-8.69593e-02,-5.49705e-02,5.06718e-02,-2.78589e-02,-2.04097e-01,-4.74654e-02,-3.00009e-03,3.90261e-02,-7.77782e-02,-7.96458e-02,8.20914e-02,-8.84975e-02,-6.99179e-02,-9.80011e-02,-3.43116e-02,-8.71579e-02,-2.07250e-02,-1.42626e-02,1.31869e-01,-9.11569e-02,-1.30520e-01,-1.39599e-01,-1.37712e-01,-1.43993e-01,-2.31836e-01,-1.63226e-01,-6.84402e-02,-8.51736e-02,-8.10747e-02,-5.30075e-02,-1.68742e-02,-2.21766e-01,-2.82074e-01,-2.04389e-02,8.19369e-03,-6.06183e-03,-1.14446e-02,-1.17714e-02,4.02673e-02,-1.92530e-02,-1.77714e-01,-1.64638e-01,-1.07065e-01,-1.29521e-01,-6.71634e-03,-9.28998e-02,3.37349e-02,-5.39053e-02,-1.76478e-01,-2.06023e-01,-2.54439e-01,-1.48108e-01,-1.20823e-01,-1.66699e-01,-8.76236e-03,-7.66171e-02,9.86047e-03,3.53218e-02,-6.13310e-02,-1.22526e-01,-9.21845e-02,3.47588e-02,-4.26757e-02,-5.39310e-02,1.70381e-02,7.60382e-03,8.15122e-02,-6.67471e-02,-4.11280e-02,-1.60767e-01,-1.05557e-02,-1.32390e-01,-2.39272e-01,-3.38093e-01,-2.54305e-01,-7.73338e-02,-5.82813e-02,-1.39801e-01,-6.43786e-02,-7.76557e-02,8.02989e-03,7.16648e-03,-8.32200e-02,-1.19273e-01,-1.90835e-01,-1.68083e-01,-1.07429e-01,-3.26816e-02,-9.41991e-02,9.53463e-02,1.01275e-01,-7.89160e-02,6.57192e-02,6.47597e-02,-6.77282e-02,-1.93452e-03,-1.33912e-01,-1.40037e-01,-2.67636e-02,-1.39123e-01,-5.81676e-02,-9.46714e-02,-2.32397e-01,-1.54195e-01,-6.51089e-02,-1.30439e-01,-1.93116e-01,-1.80978e-01,-5.28888e-02,-2.49482e-01,-1.02842e-01,-1.63964e-01,-2.31753e-01,-4.78537e-02,-5.63933e-02,-9.54122e-02,-7.16389e-02,-2.80630e-02,3.01343e-02,6.66092e-02,4.57027e-02,-7.56009e-02,5.02363e-02,-3.29461e-02,5.14617e-02,2.06078e-02,3.51315e-02,3.26034e-02,-8.30069e-02,5.32110e-02,-3.20289e-02,-1.41841e-01,-1.29445e-02,-1.27671e-01,-4.50032e-02,-1.67520e-02,6.09925e-03,3.59334e-02,-1.13384e-01,-8.06592e-02,-7.26485e-02,-6.23762e-02,2.18489e-02,-4.77511e-02,9.53390e-03,6.90998e-02,2.83926e-02,2.65929e-02,
-6.74326e-02,-1.56069e-02,6.89072e-02,-1.95158e-02,3.49581e-02,-5.71284e-02,1.38683e-02,-5.24935e-02,3.09666e-02,-1.65917e-02,6.52329e-02,-6.07027e-02,-4.77837e-02,2.04472e-02,2.70739e-02,-6.46327e-02,1.43074e-02,-3.63296e-03,3.63876e-02,5.79304e-02,-5.84314e-02,-3.52206e-02,-4.46194e-02,4.16998e-03,-1.67878e-02,3.25707e-02,2.61788e-02,1.47482e-02,-2.58295e-02,-5.82040e-02,-2.79404e-02,4.23688e-02,-4.66257e-02,1.48630e-02,-6.88079e-02,-3.47002e-02,-1.24472e-02,-5.44391e-02,-7.80392e-02,3.75245e-02,-6.38570e-02,-2.96951e-02,4.94034e-02,-1.70195e-01,-9.31280e-02,-2.58814e-02,-2.00158e-02,1.75062e-02,5.04810e-02,7.81102e-02,-7.54315e-02,7.39245e-03,-7.61911e-02,4.31285e-02,7.89237e-02,7.22301e-02,3.67277e-02,-5.26868e-02,4.47113e-02,-2.66459e-03,-4.89253e-02,2.65595e-02,8.04116e-03,1.64874e-02,-8.46743e-02,-8.95331e-03,-8.29211e-02,-4.02380e-02,2.19674e-02,-3.64828e-02,-9.25286e-02,-4.30704e-02,-1.67295e-01,-1.33123e-02,-7.39083e-02,-1.97010e-02,-1.34478e-02,-1.44815e-02,1.74110e-02,4.47831e-02,-2.37156e-02,-3.03462e-02,-7.96942e-02,-5.84877e-02,6.60159e-02,1.78546e-02,1.03696e-01,-5.92787e-02,-2.31695e-02,3.95238e-02,-6.02681e-02,-8.66098e-02,2.34720e-02,-3.39764e-02,-1.28557e-01,-1.52332e-01,-6.39268e-02,-6.72770e-02,-1.85346e-01,-3.18995e-01,-1.81414e-01,-3.84843e-02,2.14026e-02,-1.45482e-01,-4.74518e-02,-6.19301e-02,-4.51453e-02,-4.67486e-02,-8.37078e-02,-1.27599e-03,-8.67947e-02,-1.12630e-04,-2.04080e-02,4.07465e-02,3.17196e-02,-5.86609e-02,8.41063e-02,8.22820e-02,-2.76520e-02,8.01591e-02,4.55869e-02,-8.21856e-02,-3.60576e-02,-1.66046e-01,5.15246e-02,1.00944e-01,-2.18205e-01,-2.79229e-01,-1.81583e-01,-1.97778e-02,-5.30496e-02,-1.64896e-01,-9.76960e-02,1.33207e-02,-6.06744e-03,-4.38795e-02,-9.51417e-02,-1.21811e-01,1.13493e-02,4.19966e-02,-6.47123e-02,-5.58616e-02,2.53365e-03,-1.66008e-02,1.05136e-02,1.01103e-01,-4.31945e-02,9.19543e-02,1.29467e-01,3.84222e-02,-1.32753e-01,-2.41219e-01,-1.43108e-01,6.02203e-02,8.90999e-02,-7.72813e-02,-1.39558e-01,-2.07596e-01,-8.36208e-02,-7.16632e-02,-1.52944e-01,-1.76512e-01,-1.25913e-01,-7.86052e-03,-1.79332e-02,-1.57353e-01,-5.59100e-02,-2.23841e-02,-2.15346e-02,-6.13173e-03,-1.87094e-01,-1.59164e-01,-1.36613e-02,6.93362e-02,-1.03347e-01,-8.83361e-02,1.56697e-01,-2.12504e-01,-3.01882e-01,-1.83507e-01,-1.08149e-01,-7.69682e-03,7.06459e-02,9.60799e-02,1.39174e-01,5.10253e-02,-6.68484e-02,-8.60869e-03,-4.44020e-02,1.89037e-02,-8.34295e-03,-5.20355e-02,-3.19452e-02,-2.82835e-01,-7.77710e-02,-2.93303e-02,-5.52335e-02,-1.69957e-02,-5.34176e-02,-6.66041e-03,-4.75818e-02,6.07865e-04,-1.43793e-01,-9.95146e-02,7.01952e-02,-1.82564e-01,-2.40846e-01,-3.87966e-02,8.57326e-02,1.68043e-01,1.33517e-01,7.02747e-02,1.12723e-01,6.15059e-02,-5.01039e-02,5.30428e-03,-6.20743e-02,-8.64669e-03,3.55605e-02,1.12873e-01,-9.53495e-02,-1.78275e-01,8.12160e-02,-2.52866e-02,-1.41763e-02,-7.76582e-02,-1.44812e-01,-5.29155e-02,2.64290e-02,-1.91146e-02,-6.25490e-02,-3.01921e-02,-2.26666e-02,-1.38235e-01,-6.61668e-02,-2.32833e-02,1.57134e-01,1.13798e-01,-9.03874e-03,-3.52366e-02,9.24003e-03,-1.76316e-01,8.71977e-03,-7.82585e-02,-1.34389e-01,-8.67373e-02,5.61815e-02,9.41227e-03,9.38600e-02,-3.37778e-02,5.10473e-02,8.83692e-02,-2.18361e-02,1.78890e-02,-4.92322e-02,2.58319e-03,-6.12639e-02,-8.44860e-02,-1.32981e-01,-5.80578e-02,-2.93528e-02,-6.11071e-02,1.27827e-01,1.14213e-01,2.17878e-01,3.72306e-02,-3.44238e-02,-1.48644e-01,-1.72888e-01,-9.72556e-02,6.18017e-02,6.64563e-02,-1.68294e-01,-3.69502e-02,1.20703e-01,1.00428e-01,1.45288e-01,6.10000e-02,-4.76993e-03,-1.04767e-01,-1.52490e-02,4.63750e-02,-5.03950e-02,-6.51361e-02,-4.96080e-02,-2.00237e-02,-7.83120e-02,-2.19177e-01,-6.85209e-02,3.89864e-02,1.32870e-01,1.41333e-01,2.13892e-01,-8.04600e-03,-6.91642e-02,-5.01670e-02,-1.17375e-01,-1.27842e-01,6.34519e-02,-2.60743e-02,-1.18651e-01,-7.79065e-02,6.28528e-02,1.02966e-01,9.58203e-02,5.15687e-02,-2.28318e-02,-3.70181e-04,-4.15067e-02,-2.24188e-03,7.28075e-02,-5.12015e-03,-1.09089e-01,-1.40855e-01,-2.22514e-02,-2.60569e-01,-1.14013e-01,-3.39757e-02,7.57571e-02,1.65297e-02,6.84141e-02,-8.00821e-02,-1.20665e-01,8.39473e-02,9.01831e-02,-6.96847e-02,1.50925e-02,8.72940e-02,-9.63631e-02,-7.91470e-02,8.57590e-02,1.01000e-01,5.00351e-02,-9.80967e-02,-6.93104e-02,3.37245e-02,-8.97952e-03,6.31167e-02,2.51540e-02,-8.58448e-02,-8.03406e-02,-9.60151e-02,4.39173e-03,-1.11948e-01,-8.14765e-02,3.19330e-02,1.37821e-01,1.28197e-01,-2.15808e-02,1.06398e-01,1.70945e-01,1.89082e-01,1.06435e-01,1.29117e-02,-5.03967e-02,1.81271e-02,-9.67804e-02,-4.06622e-02,-6.82379e-02,-3.33855e-02,-1.08943e-02,-1.04248e-02,-3.36637e-02,5.23699e-02,3.17873e-02,1.55733e-02,-1.04259e-01,-5.73812e-02,3.82305e-02,3.97177e-02,2.79952e-02,-1.25745e-02,-5.99700e-03,1.28480e-02,9.63426e-02,1.47854e-02,8.00842e-02,1.84044e-01,1.11850e-01,1.57465e-01,8.75765e-02,-9.13332e-03,-1.00106e-01,-6.73565e-02,-3.38612e-02,9.49129e-03,-5.52574e-02,-1.01110e-01,-1.51348e-01,-2.00349e-01,-5.71255e-02,-3.28246e-02,-4.02477e-02,-3.12161e-02,-4.47708e-02,-7.54548e-02,5.37064e-02,1.21586e-01,-5.14721e-02,-4.46403e-02,-1.67475e-02,1.97107e-02,2.08146e-02,3.20810e-02,1.25689e-01,4.42899e-02,1.16851e-01,8.41432e-02,3.13339e-02,3.97363e-02,-9.03553e-03,-1.55341e-01,-3.72440e-02,6.00406e-02,5.79947e-02,4.60071e-03,-7.58279e-02,4.00320e-02,-1.73952e-01,-4.88018e-02,3.29196e-02,4.27724e-02,2.03615e-02,-5.32392e-02,-1.28513e-02,8.14753e-02,-6.81086e-02,-1.23628e-01,-2.77013e-02,-1.03158e-02,-1.01684e-01,-3.69441e-02,-1.16767e-02,6.80878e-02,7.43510e-02,3.62120e-02,4.16255e-02,1.10820e-01,1.22751e-02,-5.33173e-02,-4.50266e-02,-9.21915e-03,1.11708e-01,7.14514e-02,4.48875e-02,-3.29489e-02,-1.44187e-01,-6.08196e-02,-6.06790e-02,-3.02107e-02,3.05213e-04,-1.20210e-02,3.58815e-02,7.41917e-02,-1.38652e-01,-7.08172e-02,-1.24676e-01,-1.31110e-01,-5.00197e-03,-9.83402e-03,-2.49274e-02,-1.30527e-01,4.79507e-02,1.35417e-01,1.02929e-01,-1.14195e-01,-1.91244e-01,-1.03506e-01,-1.09880e-01,-8.73785e-02,-4.99926e-02,8.10999e-02,-1.04411e-01,-1.58747e-01,-1.01576e-01,6.56322e-02,-2.32736e-02,1.34019e-02,-2.34832e-02,-5.86644e-02,8.36986e-03,6.19209e-02,-2.00861e-01,-1.59617e-01,-3.90661e-02,-4.28992e-02,-4.63894e-03,-1.21462e-01,-3.64720e-02,-1.72366e-02,1.17414e-01,1.13052e-02,-7.20876e-02,-2.32719e-01,-1.15134e-01,-8.77742e-03,-3.07086e-02,-7.77649e-02,-5.16966e-02,-8.73343e-03,6.24624e-02,-8.41816e-02,-8.62688e-03,-1.35090e-03,4.82442e-02,1.67659e-02,2.64264e-02,1.47113e-02,1.19822e-01,6.23903e-02,2.71457e-02,-1.27189e-01,-1.42619e-01,-6.73792e-02,-3.89694e-04,-2.87545e-02,-5.81093e-02,-2.12590e-02,4.24140e-02,-4.19007e-02,-1.46831e-01,-3.00273e-01,-1.01882e-01,-9.06073e-02,-2.98571e-02,2.62291e-02,-8.49349e-02,-1.62145e-01,-6.44686e-02,-5.04601e-02,-1.41860e-02,8.17899e-02,5.40279e-02,-1.20862e-01,-1.32525e-01,-1.09216e-01,6.55239e-02,4.57954e-02,-3.44565e-02,-1.13429e-01,-1.74984e-01,-1.33831e-01,-1.03961e-01,-7.53851e-02,-3.29133e-02,8.21181e-02,1.42916e-01,-1.97110e-01,-1.25165e-01,-1.97204e-01,-1.04396e-01,1.00170e-01,8.40923e-02,2.53975e-02,-1.57516e-01,-2.75268e-01,-1.52873e-01,-8.58486e-02,-5.40886e-02,7.70400e-02,-6.35451e-02,8.73662e-02,-6.48404e-02,-1.38527e-02,1.25906e-02,6.11579e-02,2.60762e-02,-1.12264e-01,-1.65941e-01,-6.12207e-02,-3.19552e-02,-8.40398e-03,-4.79981e-02,-4.15746e-02,9.28727e-02,-1.89438e-01,-2.67875e-01,-1.71201e-01,-1.19546e-01,6.56104e-02,3.24924e-02,4.12791e-04,-4.38372e-02,-8.68018e-02,1.65188e-03,-3.74803e-02,5.68736e-02,8.71133e-02,-7.61692e-02,-3.24536e-02,-1.24429e-01,-7.83170e-02,-3.64388e-02,4.76634e-02,-1.04487e-03,-1.32896e-01,3.29598e-02,5.74537e-02,-7.94234e-02,-8.81333e-03,-4.86442e-02,-1.23391e-02,-3.35776e-02,-1.12996e-01,-2.74887e-01,-2.91274e-01,-1.38231e-01,-2.02101e-02,-5.74187e-03,-5.01105e-02,3.76330e-02,1.75073e-02,1.01403e-01,8.39765e-02,-7.85600e-02,5.16392e-02,2.81762e-02,1.01386e-02,-7.68838e-02,-5.59335e-02,2.16476e-02,-6.31119e-02,-9.65504e-03,4.79465e-02,1.18772e-01,3.11216e-02,1.56417e-02,-2.10073e-04,-9.44525e-02,-3.68055e-02,-4.95544e-02,-1.63405e-01,-2.82615e-01,-1.80190e-01,-2.74572e-03,-1.38107e-02,-5.66134e-02,-1.04092e-02,5.41539e-02,1.94357e-02,1.38529e-01,-1.15127e-03,-1.83671e-02,-7.73446e-02,8.16165e-02,-4.38480e-02,-1.48134e-01,-7.60041e-02,-1.64770e-01,-1.06540e-01,-4.89690e-02,4.31185e-02,1.14960e-01,-6.64602e-03,3.01244e-02,-8.40421e-02,-8.96688e-02,-2.25811e-01,3.20515e-02,-1.54223e-01,-2.37194e-01,-5.18511e-02,1.48200e-02,-1.49270e-02,-9.46105e-02,2.59092e-02,1.40917e-01,9.65631e-02,3.27637e-02,-2.13856e-02,8.20441e-02,-6.88205e-02,7.98300e-02,-5.58146e-02,-7.55828e-03,-1.19452e-01,-3.92572e-02,-1.48263e-02,-5.86123e-02,-1.63071e-02,1.05642e-01,7.79884e-02,7.29643e-02,-8.05075e-02,-1.93056e-01,-8.63061e-02,-1.01148e-01,-1.84349e-02,-6.05279e-02,-2.68930e-02,-3.24119e-02,-4.04131e-02,8.45240e-03,5.14445e-02,1.05773e-01,2.87171e-01,1.84674e-02,1.63332e-02,-8.08100e-02,5.12956e-02,5.12659e-02,1.08455e-02,-4.67500e-02,-5.75406e-02,8.36706e-02,2.38186e-02,-2.16272e-01,4.25835e-02,2.26395e-03,2.00615e-02,7.54240e-02,-2.66129e-02,9.36889e-02,5.34249e-02,7.17912e-03,-8.50455e-02,2.07046e-02,8.80382e-02,-1.49900e-01,-7.39193e-02,2.18938e-02,-1.45826e-02,-7.40231e-02,5.42093e-02,-6.72470e-02,-1.01823e-01,-6.09330e-02,-5.11963e-02,-4.07996e-02,-4.40509e-03,3.12322e-03,1.29870e-01,1.07922e-01,-4.55624e-02,-4.64118e-02,3.63718e-02,-7.42368e-02,2.19510e-02,8.13262e-02,-1.26317e-01,9.87337e-02,6.92584e-02,1.57668e-01,9.93590e-02,1.05172e-01,7.40090e-02,6.80804e-03,-3.84020e-02,7.53440e-03,-1.19112e-02,-1.26959e-01,-6.52245e-03,6.50092e-02,5.83950e-02,7.70105e-02,4.22580e-02,-2.47855e-02,4.87544e-03,-6.54500e-02,2.02128e-02,2.55145e-03,3.03828e-02,-5.35966e-02,-1.41380e-01,-1.21060e-02,-8.33515e-02,-7.54331e-02,6.38264e-02,3.82574e-02,6.36666e-02,1.60922e-01,-5.26408e-02,-2.71975e-03,6.89909e-02,6.32550e-02,-2.20814e-02,-4.08043e-02,-1.76826e-01,-8.67961e-02,-2.48003e-02,2.75012e-02,5.45471e-02,5.05922e-02,-7.41072e-02,
-2.83400e-02,-5.27488e-02,-3.27235e-02,-6.64199e-02,-1.65075e-02,1.84666e-02,-7.03394e-02,-4.08543e-02,-7.82136e-03,-5.70914e-02,2.93818e-02,-4.34233e-03,-6.21621e-02,-3.46679e-02,-2.25272e-02,-8.66475e-03,6.24781e-02,2.02855e-02,3.12847e-02,1.45757e-02,-4.27863e-02,3.65631e-02,4.11535e-02,-6.47117e-02,-4.30270e-02,-7.46688e-02,-5.09404e-02,-5.14892e-02,-1.18385e-02,-1.11621e-02,-4.10082e-02,4.44949e-02,-4.02813e-02,-4.04142e-02,2.10516e-02,1.44267e-01,1.12082e-01,6.41603e-02,7.52550e-02,-4.34643e-02,-3.86999e-03,-2.75176e-02,-4.11341e-02,-1.45708e-01,-4.01550e-02,-1.35869e-01,-4.06474e-02,-3.33755e-02,3.57692e-02,1.52198e-02,-1.08521e-01,-8.80830e-02,-3.68465e-02,7.23632e-02,2.79976e-02,-1.60722e-02,4.76915e-02,5.10443e-02,4.05815e-02,-7.40826e-02,1.18581e-02,-8.11608e-02,-6.56248e-02,-3.92012e-03,5.79831e-02,-4.04839e-02,3.11763e-02,-4.71567e-02,5.57549e-02,-4.56506e-02,6.63912e-02,1.64018e-02,7.41051e-02,7.18467e-02,-4.90803e-02,-5.98802e-02,-5.66642e-02,-5.14599e-02,4.49389e-02,3.98094e-02,1.02929e-01,-4.30438e-03,-1.80833e-02,-2.99038e-02,-3.24612e-02,-7.86868e-02,3.22210e-02,-6.65704e-02,-1.21011e-01,7.37482e-02,1.51800e-02,1.38488e-01,2.04136e-01,5.96415e-03,1.41288e-01,1.75984e-01,1.97825e-01,2.54267e-01,1.29030e-01,1.80216e-01,7.05590e-02,1.17712e-01,-2.18022e-02,-3.25639e-02,-5.68206e-02,-1.02957e-01,-1.97941e-02,1.11014e-01,-1.48717e-02,8.83488e-02,-8.39593e-02,5.15238e-02,-2.13039e-02,-7.82522e-02,-3.64212e-02,7.12551e-02,1.23234e-01,-6.08415e-02,-6.86967e-02,2.75600e-02,2.40412e-02,-9.38798e-02,2.03802e-02,-8.07790e-02,-1.28135e-02,-9.63675e-02,9.73686e-03,-4.63325e-03,-6.35593e-02,-7.11066e-02,-1.90091e-01,-2.04922e-01,-1.23939e-01,2.07133e-02,1.35684e-01,1.84979e-02,-1.54594e-02,-2.15291e-02,-5.51054e-02,1.90078e-02,2.64271e-02,5.93644e-02,-6.11832e-02,9.41302e-02,-9.91950e-04,6.24612e-02,1.06434e-01,1.97023e-02,-2.63891e-02,1.64187e-01,-5.10614e-02,-3.89186e-02,-8.39160e-02,-2.00567e-01,-1.78831e-01,-1.54879e-01,-1.45220e-01,-1.53994e-01,-1.67002e-01,-1.71207e-01,-1.74603e-01,-7.20756e-02,-1.68505e-01,-5.61052e-02,-1.45872e-02,-3.64161e-02,2.06843e-02,2.07222e-02,-3.11771e-02,-4.07438e-02,1.31866e-01,1.13950e-01,1.26796e-01,-8.54942e-02,2.65587e-02,1.58928e-01,9.48420e-02,6.03322e-02,4.17954e-02,-1.91712e-01,-1.53718e-01,-1.46449e-01,-2.14547e-02,1.33208e-01,-1.11258e-02,1.67728e-02,-6.65004e-02,-2.89285e-02,-8.66133e-02,1.39610e-02,-4.72271e-02,-2.13257e-01,-2.99770e-01,-2.93628e-01,-1.10121e-01,-2.77556e-02,-2.11560e-02,1.55386e-01,-6.99297e-03,9.23960e-02,3.81366e-02,-1.38581e-01,1.21387e-01,3.77267e-02,9.90960e-03,7.77771e-02,7.89534e-03,-1.95392e-01,-5.60305e-02,3.53522e-02,-3.08149e-02,1.45141e-01,1.25316e-01,1.56450e-02,6.26228e-02,-1.04642e-02,-2.64759e-02,-1.00131e-03,-9.49526e-02,-2.24754e-01,-1.71033e-01,-1.52995e-01,-7.69971e-02,-7.97338e-02,-5.56979e-02,1.09967e-01,-9.44961e-02,2.40052e-02,2.81246e-02,-9.26397e-02,-1.23429e-01,-5.35942e-02,-1.37238e-01,-7.58345e-02,7.02552e-04,3.60624e-02,4.25036e-02,5.88192e-02,6.79735e-02,1.27702e-01,1.21409e-01,2.38442e-02,3.59876e-02,-3.44330e-02,-7.07406e-03,-3.82569e-02,3.47510e-02,-1.00635e-01,-1.25412e-01,-1.99200e-01,-4.12435e-02,-6.44056e-02,4.98433e-02,6.10278e-02,1.17388e-02,1.20153e-01,8.82656e-02,-5.20132e-02,-8.81043e-02,-1.21521e-01,-4.14262e-02,3.34616e-02,9.38276e-03,1.39884e-01,2.04517e-01,1.28520e-01,9.36026e-02,-4.00835e-02,4.73456e-02,1.75519e-02,8.38948e-02,-5.19774e-02,1.98100e-02,4.82003e-02,-2.04086e-02,-1.48857e-01,-7.66954e-02,7.67582e-03,7.63780e-02,1.23783e-01,9.82972e-02,1.40995e-01,5.21807e-03,1.70371e-01,3.01758e-02,-5.85953e-02,1.03838e-01,-5.51306e-02,-6.12494e-02,1.91598e-01,1.13599e-01,3.99415e-02,1.62143e-01,1.41048e-01,3.54937e-02,-1.17708e-01,-9.28648e-02,-7.27097e-02,-1.13189e-01,1.98464e-02,-1.25457e-02,-7.62154e-02,-1.19774e-01,1.80242e-02,-9.38614e-02,1.20702e-01,7.40539e-02,9.55166e-02,-2.49232e-02,-6.69503e-02,5.98321e-02,8.41624e-02,-4.50157e-02,5.74564e-03,-2.90676e-02,8.14257e-02,-7.67853e-02,8.80904e-03,5.87518e-02,1.21417e-01,1.79699e-02,-4.66949e-02,-1.01131e-01,-1.95562e-02,3.99180e-02,6.38696e-02,2.67434e-02,8.56863e-03,8.25988e-02,-3.03251e-02,-2.91967e-02,-3.60263e-02,-1.27413e-01,-1.28821e-01,-1.24058e-01,-9.86762e-02,1.07291e-01,-1.29224e-01,5.81502e-02,-8.02266e-02,1.38023e-01,1.00292e-02,-3.88499e-02,-3.44787e-02,-9.97199e-02,9.22942e-04,5.57683e-02,-9.43676e-02,-2.21268e-01,-1.74946e-01,1.26186e-01,9.87041e-02,1.90037e-01,8.58703e-02,2.00499e-01,1.10814e-01,1.48165e-01,6.15551e-04,-5.19271e-02,3.56250e-02,-2.01562e-01,8.76343e-02,2.74318e-02,-6.44204e-03,-4.28641e-02,-1.25361e-01,-1.32196e-01,-2.63508e-02,7.96365e-02,-2.43107e-03,-1.21872e-01,-9.57254e-03,-2.93521e-02,-1.18036e-01,1.26301e-02,-1.14424e-01,-1.69257e-01,5.84506e-02,1.17347e-01,3.98580e-02,8.34958e-02,1.78006e-02,4.30113e-03,2.50474e-02,6.85373e-02,-6.40738e-03,-1.26675e-01,1.42085e-02,-6.88750e-02,-8.01191e-02,-6.77985e-02,8.88629e-02,-1.02512e-01,-6.54103e-02,-5.06748e-02,2.81147e-02,1.21323e-01,-2.67533e-02,-5.17496e-02,-1.20177e-01,-8.33782e-02,-3.32970e-02,1.38344e-02,-6.57833e-02,-1.04490e-01,-1.60934e-02,4.73844e-02,7.32589e-02,2.37809e-02,4.61081e-02,6.68973e-02,7.18676e-02,-3.83889e-03,3.81525e-02,-6.71797e-02,-1.10413e-02,-4.63274e-02,-6.45002e-02,-1.54207e-02,-2.86390e-02,-1.50654e-02,8.07510e-02,-1.11526e-01,2.43594e-02,2.35051e-01,9.64134e-02,8.86605e-03,3.07203e-02,-3.09236e-02,-1.62061e-01,-4.07884e-02,-1.12085e-01,-9.71923e-02,-5.70465e-02,1.02190e-01,3.39682e-02,-5.20255e-02,-1.35067e-02,7.36064e-02,1.49568e-01,4.34449e-02,9.50902e-02,2.42095e-02,7.52566e-02,-7.38608e-02,-8.57414e-02,-6.24772e-02,5.45897e-02,-8.58985e-02,6.17246e-02,7.02412e-02,-7.59846e-02,2.65991e-01,9.23827e-02,3.28736e-02,1.51055e-01,2.19142e-02,-5.29543e-02,5.80397e-02,4.53919e-03,5.46788e-02,5.54792e-02,9.01117e-02,-1.34838e-03,-1.34153e-01,2.02748e-02,8.60661e-02,1.68701e-02,-2.79964e-02,2.88493e-02,2.59503e-02,3.37353e-02,-8.21038e-02,-1.14026e-01,-1.14119e-01,-3.71996e-02,-4.95663e-02,8.52460e-02,1.94485e-02,5.65856e-02,1.42960e-01,-1.79485e-02,7.85874e-02,1.29542e-01,1.35380e-01,1.56967e-01,8.24646e-02,2.99153e-01,2.15000e-01,9.86666e-02,3.52827e-02,2.08172e-02,-1.26988e-01,1.08406e-01,8.14120e-02,-2.88680e-03,-5.39970e-02,2.89523e-03,6.69878e-02,-3.12591e-02,-3.35591e-01,-1.36128e-03,-1.53564e-01,-1.59649e-01,-7.03091e-02,-6.35399e-03,1.78676e-01,3.01203e-02,1.01593e-01,7.67134e-02,1.22119e-01,1.19421e-01,1.05610e-01,1.26279e-01,3.39195e-01,3.08346e-01,1.72190e-01,3.83552e-02,5.84692e-02,-9.63777e-03,2.82474e-02,1.36363e-02,3.79309e-02,3.38199e-02,3.07132e-02,3.34362e-02,2.08573e-02,-9.71868e-02,-4.95334e-01,-8.26799e-02,2.31735e-02,5.58001e-02,6.68593e-02,-8.29004e-02,5.12415e-02,-2.32341e-02,1.22529e-01,-4.26730e-02,-1.51043e-01,-4.56423e-02,1.31639e-01,7.89667e-02,1.10773e-01,1.04192e-01,5.49988e-02,1.44275e-02,4.61268e-02,-5.02985e-02,2.97635e-02,-4.49336e-02,7.19133e-02,9.52745e-02,5.27124e-02,4.13357e-02,-6.21403e-02,-2.54872e-01,-3.17179e-01,-1.62096e-03,-6.91998e-02,2.45524e-02,2.44914e-02,-9.29843e-02,4.85056e-03,-1.72968e-01,-4.12179e-02,-2.32045e-01,-1.60979e-01,-2.40003e-01,-1.72418e-01,-4.12925e-02,-2.71880e-01,-1.96400e-01,-2.42301e-01,-1.06235e-01,8.93983e-02,6.06708e-02,8.46810e-02,-3.00447e-02,-3.82136e-02,6.58321e-02,-1.21878e-01,-6.91848e-02,-1.30370e-01,-9.14025e-02,-8.55351e-02,8.20138e-02,-1.20765e-02,-6.56241e-03,6.20933e-02,2.23027e-02,-8.84389e-03,-1.53341e-01,-1.66932e-01,-1.51962e-01,-2.72987e-01,-3.72204e-01,-3.62808e-01,-2.30130e-01,-2.55691e-01,-2.43952e-01,-2.64992e-01,-1.77511e-01,3.53341e-02,-3.76651e-04,9.59326e-02,-7.56496e-02,5.91473e-02,-5.29228e-02,-1.05726e-01,5.82578e-02,-1.07329e-01,-2.24863e-02,1.25619e-02,2.18995e-02,-1.51875e-01,3.47973e-02,9.23805e-03,-2.58273e-02,-3.28696e-02,-1.46667e-01,-2.13004e-01,-1.01283e-01,-2.35172e-01,-2.00102e-01,-3.45371e-01,-2.89084e-01,-2.62043e-01,-2.55037e-01,-1.16174e-01,2.21497e-02,-1.50905e-02,-1.36193e-01,-3.56258e-03,1.41766e-02,-6.85375e-02,-1.07308e-01,-4.36270e-02,-9.18158e-03,3.64712e-02,9.93621e-02,2.57686e-02,-3.89485e-02,-3.82810e-03,2.26832e-02,6.18083e-02,5.56031e-02,7.05610e-02,-1.05393e-02,6.19448e-02,2.03167e-02,2.55366e-02,5.41975e-02,-1.54604e-01,-1.91941e-01,-1.56409e-01,-1.00653e-01,-9.30917e-02,-6.58188e-02,-8.96752e-02,-1.00533e-01,-1.54955e-01,-1.41937e-01,-6.20990e-02,-1.55372e-01,-1.15744e-02,3.84070e-02,7.67855e-02,5.61277e-02,1.67280e-01,1.22119e-01,-5.66902e-02,5.22130e-03,5.45089e-02,-2.68095e-02,1.76300e-02,1.22983e-02,3.04142e-01,2.65590e-01,4.47275e-02,1.58970e-01,1.39067e-01,9.22434e-02,-5.78504e-02,-6.05556e-02,-8.44201e-02,3.11821e-02,-9.15212e-02,-1.43101e-01,-4.14552e-02,-2.70273e-03,5.01731e-02,-7.15254e-03,4.98742e-02,7.83840e-02,1.46358e-02,1.41709e-01,-6.49888e-03,1.67363e-02,3.88722e-02,-5.95357e-03,-9.88200e-04,-7.89653e-02,3.30493e-02,-4.32999e-02,5.11797e-02,3.05223e-01,5.38379e-02,1.28624e-01,2.45830e-01,1.13279e-01,3.73212e-02,5.22693e-02,1.24043e-01,9.63815e-02,1.44982e-02,1.57427e-01,1.64860e-01,9.32577e-02,8.94787e-02,1.70521e-01,1.14282e-01,9.58851e-02,-2.05164e-02,2.84476e-02,-1.85668e-02,6.21417e-02,-1.15377e-01,2.02723e-03,4.79543e-02,-2.25860e-02,3.05103e-02,4.11543e-02,-3.22057e-02,3.08851e-02,1.93021e-01,2.94241e-01,1.02159e-01,1.65810e-01,1.32903e-01,1.03799e-01,1.72493e-01,2.32667e-01,3.89921e-01,2.28351e-01,1.34097e-01,1.70683e-01,1.98450e-01,1.48995e-01,1.21299e-01,1.96742e-01,-3.27645e-02,2.54655e-01,5.49767e-02,-9.30514e-02,-6.16832e-02,8.21522e-02,7.72445e-02,-3.70719e-02,-7.19990e-02,3.57749e-02,5.45647e-02,-1.19325e-02,2.15807e-02,1.66713e-01,1.14857e-02,1.47036e-01,1.31544e-01,1.42258e-01,1.50053e-01,-1.46753e-02,1.71440e-01,1.68408e-01,1.14904e-01,1.44288e-01,1.30753e-01,2.80571e-02,-2.36797e-02,-8.01199e-02,-1.05239e-01,5.28601e-02,-4.53922e-02,6.58839e-02,-2.99851e-02,4.37895e-02,
